674 200
Amy_Polk 0.10729078203439713 0.2639673352241516 -0.041483499109745026 -0.31227031350135803 0.40052783489227295 0.7769710421562195 0.3251121938228607 -0.5412474870681763 -0.3460484445095062 0.3511848449707031 -0.2712598741054535 0.2087351679801941 -0.42629674077033997 -0.7071558237075806 -0.28921744227409363 0.13362526893615723 -0.3959220349788666 0.1896200329065323 0.12795579433441162 0.7148209810256958 0.1897454410791397 0.7015801072120667 -0.4460926949977875 0.23599395155906677 -0.12111672759056091 -0.650679349899292 -0.45353347063064575 -0.23214495182037354 0.49716484546661377 -0.37281686067581177 0.7743160128593445 0.05738735944032669 -0.31616896390914917 -0.7023131251335144 -0.5965672731399536 0.10300564020872116 0.5308671593666077 0.25798818469047546 -0.12958043813705444 0.09070520102977753 -0.10621282458305359 -0.457756906747818 0.3878136873245239 -0.2782665491104126 0.12816573679447174 0.15277954936027527 0.41424769163131714 0.4670093357563019 0.4869897961616516 0.523094654083252 -0.424601286649704 0.8371260166168213 -0.029236897826194763 0.31232938170433044 0.35433995723724365 0.20991680026054382 0.16436097025871277 0.05935732275247574 -0.07634943723678589 -0.15140211582183838 0.44950589537620544 -0.12634147703647614 -0.36954429745674133 -0.10153821855783463 0.19929762184619904 0.6027418971061707 0.3908632695674896 0.03727937489748001 0.07061849534511566 -0.38123390078544617 0.49886709451675415 -0.5249301791191101 0.3365514576435089 -0.41123032569885254 -0.2425192892551422 0.37017735838890076 0.007697589695453644 -0.6454868316650391 -0.20781798660755157 0.3887793719768524 0.5226888060569763 0.4004472494125366 0.2287425547838211 0.541635274887085 -0.359728068113327 -0.24352262914180756 0.2949196696281433 0.40909847617149353 -0.0900818333029747 0.29446494579315186 -0.5121616721153259 0.0336654968559742 0.2565152645111084 0.4537573754787445 -0.08702260255813599 -0.19778276979923248 -0.15212993323802948 -0.2421475648880005 -0.25492721796035767 0.5661436319351196 -0.4884612560272217 -0.07843434810638428 -0.4958494007587433 -0.5259823799133301 -0.12587423622608185 0.5443128943443298 0.06789473444223404 -0.4446793496608734 -0.0014389734715223312 -0.24110472202301025 -0.024022847414016724 -0.3272595703601837 -0.28166550397872925 0.6165395975112915 -0.3923090398311615 -0.35611972212791443 0.4427468478679657 -0.23057536780834198 -0.10729295760393143 0.12075763195753098 -0.5034502744674683 0.03940971940755844 0.2180793732404709 -0.3073817491531372 0.20902061462402344 -0.7247089147567749 0.07618218660354614 -0.12227528542280197 -0.25424548983573914 0.27270814776420593 -0.009322656318545341 -0.1182800754904747 -0.6296220421791077 -0.23217065632343292 0.2830527424812317 0.4434715807437897 0.06614254415035248 0.43122217059135437 -0.2620088756084442 0.23756028711795807 0.3743394613265991 0.8161049485206604 -0.46062275767326355 0.2822853624820709 0.6797696948051453 -0.20707963407039642 -0.3325033485889435 -0.1816655695438385 -0.3062252104282379 0.19078470766544342 -0.46171900629997253 0.41975733637809753 -0.21659818291664124 -0.5954047441482544 0.07428967207670212 0.025202034041285515 -0.15446142852306366 -0.253534197807312 0.4661039412021637 -0.3668186068534851 -0.5110344290733337 -0.07058772444725037 0.4459120035171509 0.38524189591407776 0.18142841756343842 -0.5957034826278687 0.350953608751297 0.07345979660749435 0.36336827278137207 -0.7329918742179871 -0.0966150239109993 0.09204503893852234 0.1329648345708847 0.17884531617164612 0.06293711066246033 0.037852637469768524 -0.6139079928398132 -0.3498978018760681 -0.4882224500179291 -0.272459477186203 0.34838902950286865 0.43519333004951477 0.5261722207069397 -0.1794852614402771 0.3295438885688782 -0.3343583941459656 -0.05766449123620987 0.4288926422595978 -0.1641007959842682 0.4873904585838318 -0.30583566427230835 0.2613776624202728 0.2992802560329437 0.2789419889450073 -0.37769532203674316 0.06581620872020721 0.6866771578788757 0.26205068826675415 -0.24295873939990997 -0.2697955071926117
Lilly_Kane's_death -0.43117988109588623 0.5078453421592712 -0.12418956309556961 0.2662622630596161 0.11062657088041306 -0.5595614314079285 0.42761650681495667 0.0013448745012283325 0.4744214117527008 -0.2107403725385666 0.20868973433971405 -0.07721370458602905 0.30355727672576904 0.22088396549224854 -0.10795849561691284 -0.13334423303604126 -0.21648599207401276 0.5773141384124756 -0.13110078871250153 -0.2412514090538025 -0.40307512879371643 -0.40005427598953247 0.2806665003299713 0.4303675889968872 -0.2278319150209427 -0.055015020072460175 -0.6960743069648743 -0.1250663548707962 0.18603287637233734 -0.15000957250595093 0.11108981817960739 -0.5746496915817261 0.4245795011520386 -0.6225730180740356 -0.31072574853897095 -0.6714637279510498 0.2534061074256897 -0.21983107924461365 0.15136145055294037 -0.2994023561477661 0.20883239805698395 -0.2607348561286926 0.11324600130319595 -0.08419491350650787 -0.5993314981460571 0.15089590847492218 0.10690857470035553 0.1676754206418991 0.0032756123691797256 -0.261083722114563 0.20164741575717926 -0.19166165590286255 -0.9665930867195129 -0.6583582162857056 -0.12755714356899261 0.5802565217018127 0.07638557255268097 0.08485409617424011 -0.15201300382614136 -0.6052793860435486 0.47085750102996826 0.3265014886856079 0.7267491221427917 0.4758891463279724 -0.19502940773963928 -0.31300362944602966 0.6433414220809937 0.18750779330730438 -0.2032780945301056 0.17802894115447998 -0.3861599862575531 0.1772315800189972 0.3248974680900574 0.6407105326652527 -0.3864362835884094 -0.4026496112346649 -0.6818527579307556 -0.0819723904132843 0.614982545375824 -0.2561471164226532 -0.2846313714981079 0.2461485117673874 -0.3645714521408081 0.021323714405298233 0.15598489344120026 0.3255941867828369 -0.5235199928283691 -0.31431370973587036 -0.2908053994178772 -0.36441725492477417 0.5770767331123352 0.16019074618816376 0.0855569913983345 0.3512636721134186 0.21773366630077362 0.49851807951927185 0.041717685759067535 0.031078502535820007 -0.5680274367332458 0.5126245021820068 0.044054947793483734 0.7859100103378296 -0.14499159157276154 0.2524404227733612 0.12425414472818375 0.1769189089536667 -0.07271718978881836 -0.06126641854643822 0.24984464049339294 -0.14390146732330322 0.2274310439825058 0.517200767993927 -0.615292489528656 0.7436346411705017 -0.7893459796905518 -0.41323184967041016 0.3359692692756653 0.07614278793334961 0.09715473651885986 -0.37922602891921997 -0.3794195055961609 -0.05687340348958969 0.17003177106380463 0.25117063522338867 -0.18964681029319763 -0.27357208728790283 0.3728037476539612 -0.20215430855751038 -0.022924071177840233 0.49532002210617065 0.11151681840419769 0.20156985521316528 -0.5816304683685303 -0.13439533114433289 0.09124808013439178 -0.00307331420481205 0.2520773410797119 -0.2721196413040161 0.18584182858467102 0.6215626001358032 0.04968030005693436 0.2876203656196594 -0.2603917717933655 0.1429145485162735 -0.515651285648346 0.5297672748565674 0.014216901734471321 0.4964239299297333 0.2729485034942627 -0.0666424036026001 -0.11257840692996979 0.20188914239406586 0.2524387538433075 -0.06337902694940567 -0.02350846864283085 0.41145411133766174 0.3947615325450897 -0.5571039915084839 0.0772738978266716 0.36303290724754333 -0.08666469156742096 0.00516161136329174 -0.332991361618042 -0.07732783257961273 0.49078187346458435 -0.03066384606063366 -0.05236314609646797 -0.43323686718940735 0.30468207597732544 0.18633227050304413 -0.04256424307823181 -0.16732843220233917 0.18111875653266907 0.6989117860794067 0.08329671621322632 0.41760146617889404 0.131382554769516 -0.08848077803850174 -0.2512836158275604 -0.007392633706331253 -0.05537080019712448 -0.1629108041524887 -0.028068985790014267 -0.29112112522125244 -0.1906532645225525 -0.05451800301671028 0.09951478987932205 0.24749088287353516 -0.09476514160633087 0.1550481617450714 -0.3544255197048187 -0.36886975169181824 -0.013878870755434036 -0.2195233404636383 0.15541009604930878 0.16732728481292725 0.04163464158773422 0.36177152395248413 -0.6675805449485779 -0.10614675283432007
Ransom_video -0.3401018977165222 0.34878435730934143 0.2743808925151825 0.09212849289178848 -0.26721858978271484 -0.1152198314666748 0.037932492792606354 -0.32917314767837524 -0.056243859231472015 -0.34012681245803833 0.15070971846580505 0.15025927126407623 0.3403340280056 -0.4892643392086029 0.7201049327850342 -0.17236250638961792 0.5126993656158447 0.21286845207214355 -0.21139946579933167 -0.06803348660469055 0.07459108531475067 -0.15448032319545746 0.5009022355079651 -0.42680323123931885 0.4317687153816223 0.18338444828987122 0.5154418349266052 0.07475126534700394 -0.5462781190872192 0.027930600568652153 -0.10586397349834442 0.2810091972351074 0.1191711276769638 0.1130225658416748 0.008664241060614586 -0.2828702926635742 -0.34344613552093506 -0.042976438999176025 0.5713182687759399 -0.3697808086872101 -0.3363724946975708 0.5509421825408936 -0.05442573130130768 0.4625469744205475 -0.6186528205871582 0.4683752954006195 0.15823298692703247 -0.20655374228954315 0.2518249750137329 0.3581009805202484 -0.17429134249687195 -0.1279388964176178 0.16704022884368896 -0.5191258788108826 -0.5111306309700012 0.2860465347766876 0.20896244049072266 -0.09487739205360413 -0.14323967695236206 0.02516954205930233 0.0431218296289444 0.07701539248228073 -0.3975062370300293 -0.6423404812812805 0.052112843841314316 -0.2153005301952362 -0.29633963108062744 0.35392412543296814 -0.23993924260139465 -0.2144603580236435 0.09847648441791534 0.7056068778038025 0.10976913571357727 0.027951400727033615 0.34342703223228455 -0.026326915249228477 -0.12415781617164612 0.17369839549064636 0.2504603862762451 -0.18717598915100098 0.1542261689901352 -0.23469439148902893 -0.049737896770238876 -0.06783223152160645 0.44349268078804016 -0.053586751222610474 0.2667481303215027 0.13240095973014832 0.25057390332221985 0.04062805324792862 0.2778688073158264 0.08007776737213135 0.22942785918712616 -0.35752376914024353 -0.10889080911874771 0.39455923438072205 -0.41158679127693176 -0.301628977060318 -0.4960590898990631 -0.0032913852483034134 0.08233420550823212 -0.011432567611336708 -0.1533634215593338 -0.09224744886159897 0.09758062660694122 0.2611161470413208 0.6574192643165588 -0.06681422144174576 -0.21594513952732086 0.17512264847755432 -0.0781935527920723 -0.14229419827461243 0.10045084357261658 0.48447710275650024 0.3104311525821686 -0.05448896437883377 -0.4300217926502228 -0.3991217315196991 -0.33855998516082764 0.15665431320667267 -0.09665590524673462 0.35172468423843384 -0.14765498042106628 -0.07911314070224762 0.47435373067855835 -0.1446855515241623 -0.10588647425174713 0.233906090259552 0.1624232679605484 0.46126502752304077 -0.013407014310359955 0.23487158119678497 0.09835807234048843 0.15888412296772003 -0.0927741676568985 -0.19284436106681824 -0.34764564037323 0.16067004203796387 0.04867616668343544 0.03907085955142975 -0.38110604882240295 -0.2392679750919342 -0.1335817575454712 0.17809240520000458 0.015848396345973015 0.05942454934120178 0.15650853514671326 -0.3181203603744507 -0.2920339107513428 0.06498774886131287 0.17931030690670013 0.01911497488617897 -0.06138221547007561 0.19865094125270844 0.05422356724739075 -0.3754751980304718 -0.07512743771076202 0.32474446296691895 0.21044373512268066 -0.06969067454338074 -0.17213065922260284 0.02280399017035961 -0.09708365052938461 0.2099158763885498 -0.12582483887672424 0.3418709337711334 0.16317924857139587 -0.5145635604858398 -0.41867297887802124 0.0853508859872818 -0.26536014676094055 0.11740677803754807 0.019620437175035477 -0.41701918840408325 0.22464056313037872 0.09769527614116669 -0.4011172354221344 -0.5116706490516663 -0.4541923403739929 0.07078073173761368 -0.3029954433441162 0.4066283702850342 0.31701844930648804 -0.09615802019834518 -0.2405061572790146 0.25371068716049194 -0.43386247754096985 -0.032332733273506165 0.40737462043762207 -0.3858947455883026 -0.07844945788383484 -0.17523156106472015 0.49137935042381287 0.12945915758609772 -0.1574011892080307 0.21596674621105194 -0.02782411314547062 -0.3280408978462219 0.5741748809814453 -0.21381214261054993
Darcy -0.07552838325500488 -0.07647979259490967 0.40916621685028076 0.0030025336891412735 0.22663190960884094 -0.1336911916732788 -0.29372137784957886 -0.4830678403377533 0.05815615504980087 -0.42210152745246887 0.3879914879798889 0.1333116739988327 -0.025935498997569084 0.2799498438835144 0.2533634603023529 -0.1790759265422821 -0.08541476726531982 0.46081703901290894 0.5721269249916077 0.2577548623085022 0.2593022882938385 0.012008538469672203 -0.2003520429134369 -0.27520427107810974 0.06852908432483673 -0.18867240846157074 0.17791803181171417 0.30067214369773865 0.07675096392631531 0.23791296780109406 0.33147162199020386 0.30514344573020935 -0.3638914227485657 -0.37121477723121643 0.14058911800384521 0.05902896821498871 -0.4543645977973938 0.010782163590192795 -0.5314890146255493 0.6898998022079468 0.2829108238220215 -0.03857401758432388 -0.5499778389930725 0.5485395789146423 -0.15702833235263824 -0.29656967520713806 0.3389381170272827 -0.15357577800750732 0.5267188549041748 0.1349269300699234 0.5400350093841553 0.09103353321552277 0.07595105469226837 0.148897185921669 -0.38679078221321106 -0.321626216173172 -0.37453338503837585 0.05968593806028366 -0.37062978744506836 0.7807203531265259 0.5956915616989136 -0.10961746424436569 0.3502452075481415 0.4803577959537506 0.31011196970939636 0.092262864112854 -0.2803233861923218 -0.4191296696662903 -0.42929959297180176 -0.05661662667989731 0.44982650876045227 0.2124858796596527 0.4047439992427826 0.11379018425941467 -0.2516593933105469 -0.11544161289930344 0.4227655529975891 0.25621604919433594 0.16252461075782776 0.23254181444644928 -0.08260839432477951 -0.5169640779495239 0.5132467746734619 0.29791685938835144 -0.27026182413101196 -0.30530494451522827 -0.5078027248382568 -0.31419965624809265 0.36445319652557373 0.7435869574546814 -0.237911194562912 -0.2769676744937897 0.52516108751297 -0.14617928862571716 0.3740638196468353 -0.453268438577652 0.03427952155470848 0.25788170099258423 -0.31542059779167175 -0.5638931393623352 -0.10186690092086792 -0.3620137870311737 0.3452281653881073 0.0975031852722168 0.4680238366127014 0.4047897756099701 0.3085242807865143 -0.40658825635910034 -0.4691489338874817 0.10926377773284912 0.08135662227869034 -0.09554100036621094 -0.45719796419143677 -0.09217990934848785 0.004548033699393272 0.20104892551898956 -0.3631269037723541 -0.2195015251636505 -0.6049510836601257 0.12844593822956085 0.12593597173690796 -0.3273041844367981 0.4232718348503113 -0.48169800639152527 -0.28631216287612915 -0.10976240783929825 -0.43902644515037537 -0.3462703824043274 0.06864390522241592 0.014688901603221893 -0.00252336822450161 -0.08525458723306656 0.05783294141292572 0.30162400007247925 0.5349364876747131 0.3715991973876953 0.21648354828357697 0.5106984376907349 -0.5043886303901672 -0.0644739493727684 -0.19298221170902252 -0.3471551239490509 0.03975147008895874 -0.2120250016450882 0.3362252414226532 -0.49455496668815613 0.06369810551404953 -0.28959357738494873 0.7703434824943542 0.5460188388824463 -0.01353595219552517 -0.39079031348228455 -0.017347294837236404 -0.31167441606521606 -0.12218969315290451 0.21192485094070435 0.14411257207393646 0.2902180850505829 -0.18366429209709167 0.48476824164390564 -0.3725568354129791 -0.07738175243139267 -0.16513314843177795 0.7635431885719299 0.1465190351009369 0.5652695298194885 0.12816116213798523 0.43249455094337463 -0.35514742136001587 0.35159894824028015 0.04612722247838974 0.41445332765579224 -0.12065143883228302 -0.3102283775806427 -0.41310667991638184 -0.20841892063617706 -0.3250782787799835 0.1417054980993271 -0.307786226272583 0.49738991260528564 -0.33703428506851196 -0.43692994117736816 0.3760547935962677 -0.33412691950798035 -0.7097263336181641 -0.39054328203201294 0.5080894231796265 0.6101602911949158 -0.2962299585342407 0.008859412744641304 0.14068281650543213 -0.3927258849143982 -0.0675712451338768 0.13885033130645752 -0.7146838307380676 -0.09575460851192474 0.3877643346786499 0.32686281204223633 -0.5415458083152771 0.3741626739501953
Hamilton -0.33483603596687317 -0.10366388410329819 -0.24330231547355652 -0.30846208333969116 0.26926854252815247 0.15617014467716217 0.4530099034309387 0.22416843473911285 0.1074402779340744 -0.44254082441329956 -0.2962486147880554 -0.21731838583946228 0.008969901129603386 -0.1376468539237976 0.17848128080368042 -0.6340780258178711 0.15242505073547363 -0.08403338491916656 0.10084217041730881 0.03346078097820282 0.20265480875968933 -0.17123207449913025 0.15141668915748596 0.3531149923801422 0.193674236536026 0.19454318284988403 -0.11129669845104218 0.10240761190652847 0.3772757947444916 0.3523479402065277 -0.1158638596534729 0.37902504205703735 0.34628498554229736 0.312444806098938 0.33744803071022034 -0.5021770000457764 0.5811988115310669 -0.4978858530521393 -0.33781352639198303 -0.5202181339263916 -0.23813219368457794 -0.28010815382003784 0.6667447090148926 0.9284709095954895 0.038535766303539276 0.37241512537002563 0.3341010808944702 0.36058759689331055 0.35931268334388733 0.29007863998413086 0.25397956371307373 -0.13215801119804382 0.09145978093147278 -0.08366291970014572 0.05329880118370056 -0.24818465113639832 0.1380583643913269 -0.02743009850382805 0.4620038866996765 -0.22851763665676117 0.2002100646495819 0.2507840394973755 0.23252463340759277 -0.347017765045166 0.4200761914253235 -0.011530376970767975 -0.3180910646915436 0.06884846836328506 -0.003689836710691452 -0.12920311093330383 -0.2970200777053833 0.02721305750310421 0.14672884345054626 0.07149533927440643 -0.17629016935825348 0.47771167755126953 0.03328641876578331 0.5216902494430542 0.09817379713058472 -0.5727179646492004 0.14170560240745544 -0.1006256639957428 -0.19013100862503052 0.5231090188026428 -0.22027868032455444 0.00025587715208530426 0.2505464255809784 0.30505305528640747 0.04748634248971939 0.16911515593528748 -0.10137741267681122 -0.4025322496891022 -0.19812512397766113 -0.6106010675430298 0.45340633392333984 0.16494889557361603 -0.001110117882490158 0.327247679233551 -0.2788006365299225 0.35185885429382324 0.0566653311252594 -0.36762893199920654 0.3381894826889038 -0.1328486204147339 0.5766701102256775 -0.25439053773880005 0.08221057802438736 0.6241074204444885 -0.21354271471500397 0.0017461292445659637 -0.21869544684886932 -0.25824639201164246 -0.20121058821678162 -0.514671802520752 0.20352846384048462 -0.008185306563973427 -0.4145249128341675 -0.011903943493962288 -0.47957584261894226 0.23881155252456665 0.1824737787246704 -0.31689101457595825 -0.09436161816120148 -0.4595503509044647 0.11377864331007004 0.3257697522640228 -0.2736988663673401 -0.20063169300556183 -0.13681325316429138 -0.058140069246292114 -0.2511993646621704 0.6047802567481995 0.07778557389974594 0.1845475137233734 -0.4929225444793701 -0.3142430782318115 -0.09011571109294891 0.04960130527615547 0.17989102005958557 0.32518380880355835 -0.1638367772102356 0.5634217262268066 -0.10829252004623413 -0.0898318886756897 -0.4499083459377289 0.8473814725875854 -0.42385363578796387 -0.3832138180732727 0.42872655391693115 -0.254909873008728 -0.21416835486888885 -0.6824017763137817 0.42559385299682617 -0.13888534903526306 0.3926939368247986 -0.4870521128177643 -0.395622193813324 0.1815907508134842 -0.2726258635520935 0.19341479241847992 -0.2369140237569809 0.5335745215415955 0.29415562748908997 0.9419791102409363 0.2932899296283722 -0.3899378180503845 0.30967748165130615 0.060743484646081924 -0.4646252989768982 0.3288183808326721 0.353223592042923 0.2845511734485626 0.14873553812503815 0.15002989768981934 -0.431217759847641 0.1495632529258728 -0.12211327999830246 -0.16871996223926544 0.28364938497543335 -0.021990636363625526 -0.2548544406890869 -0.11705129593610764 0.15224993228912354 -0.004523534327745438 -0.06496105343103409 0.08442278206348419 -0.25479185581207275 -0.0018877163529396057 -0.542300283908844 -0.4805508553981781 0.08916148543357849 -0.08535449206829071 -0.5541813969612122 -0.03180669993162155 0.015540827065706253 -0.44864681363105774 -0.5315155386924744 0.11232490837574005 0.6528778672218323 -0.4056302309036255
Leticia_Navarro 0.5772676467895508 0.10134171694517136 0.5097187161445618 0.1356448382139206 0.16040897369384766 -0.13077422976493835 0.19104592502117157 0.2986999750137329 -0.48053961992263794 0.043058499693870544 0.3261371850967407 0.36317411065101624 -0.45708760619163513 -0.26716482639312744 0.1907491385936737 -0.26821085810661316 0.28442665934562683 0.657067060470581 0.4053831398487091 -0.25437819957733154 0.6955181360244751 0.5633825063705444 -0.2054191678762436 -0.617655873298645 -0.5883257389068604 0.4728814959526062 -0.10427232086658478 0.05836661905050278 0.11556962877511978 0.47646182775497437 -0.05584575608372688 -0.1819227784872055 0.13919445872306824 -0.017087679356336594 -0.3060917556285858 0.34922370314598083 -0.18717160820960999 0.059278275817632675 -0.0687454417347908 -0.42046377062797546 -0.04056669771671295 0.3843000531196594 0.11901675164699554 -0.294799268245697 0.6855993270874023 -0.2889614701271057 0.40360227227211 -0.2758693993091583 -0.12957046926021576 -0.06496242433786392 -0.39936429262161255 0.37291473150253296 -0.24864605069160461 0.3319489359855652 -0.4400789141654968 -0.2465686798095703 -0.044188279658555984 0.3911578357219696 0.48468175530433655 -0.00977112166583538 0.007266916334629059 -0.5660301446914673 -0.5098618865013123 0.1685398370027542 -0.28464949131011963 -0.02527298964560032 -0.5489409565925598 0.09581124782562256 0.05630216747522354 0.648777186870575 0.2922525405883789 0.24378617107868195 -0.1644885241985321 -0.7047110199928284 -0.3643721044063568 0.3378276228904724 -0.28214704990386963 -0.06101751700043678 -0.12846733629703522 -0.23337164521217346 0.2704349756240845 -0.053572118282318115 -0.40365302562713623 -0.36245638132095337 -0.193716362118721 0.7745658159255981 -0.3547479212284088 0.11079272627830505 -0.08058574795722961 0.4600505828857422 0.3444424569606781 0.4632556438446045 -0.11438503861427307 -0.04245828837156296 -0.41340115666389465 -0.11530403792858124 0.36755380034446716 0.49763989448547363 -0.3556610941886902 -0.7537879347801208 0.3407180905342102 0.425017386674881 0.040247414261102676 -0.6033650636672974 -0.14180472493171692 -0.41116318106651306 -0.6054230332374573 0.1397077739238739 -0.39711153507232666 0.6189866662025452 -0.27695682644844055 0.3511565923690796 0.5013557076454163 0.17608287930488586 0.548860490322113 -0.05115290731191635 -0.1652381718158722 0.17213702201843262 -0.03866584599018097 0.12393283098936081 -0.36803191900253296 0.41659584641456604 -0.44962453842163086 0.045309245586395264 -0.20241758227348328 -0.04987144470214844 0.5331864953041077 0.18029993772506714 -0.1454760879278183 -0.11149704456329346 -0.11957697570323944 0.05612709000706673 0.713732898235321 0.41612473130226135 0.42791852355003357 0.3898995816707611 -0.03226294368505478 -0.028237581253051758 0.1288558393716812 -0.2899804413318634 0.5352415442466736 -0.5319429039955139 0.16474123299121857 0.040191005915403366 -0.1974153071641922 0.2778116464614868 0.662071943283081 -0.06089683249592781 -0.35732021927833557 0.05994242802262306 -0.341900497674942 -0.2000928521156311 0.0036006104201078415 0.2133578509092331 -0.5153146982192993 0.34877103567123413 0.6643838286399841 0.251105934381485 0.39189478754997253 -0.7442604303359985 0.3747332692146301 -0.2835133373737335 -0.2840210199356079 -0.12344308197498322 -0.6347236633300781 0.48398226499557495 0.321469247341156 0.27925243973731995 0.4293077886104584 -0.45397406816482544 -0.3256481885910034 -0.4520641267299652 -0.2507033944129944 0.36008208990097046 0.6974486112594604 -0.44167041778564453 -0.21195197105407715 0.4780728816986084 -0.13956323266029358 -0.2655342221260071 0.05232921987771988 -0.3470683693885803 0.447710245847702 -0.2148653268814087 -0.17648941278457642 -0.4349513649940491 -0.1333698332309723 0.06302663683891296 0.16876405477523804 -0.23071351647377014 0.5293006300926208 0.14463017880916595 0.4298537075519562 0.1776137501001358 -0.08500050008296967 0.17313528060913086 -0.055824682116508484 -0.021699070930480957 -0.6169115900993347 0.25197887420654297
abuse_survivor -0.23910927772521973 -0.2343335896730423 0.005779292434453964 0.25601890683174133 -0.09020596742630005 -0.1935926079750061 -0.2253444641828537 0.12591542303562164 -0.20607300102710724 0.07661861181259155 0.4352358877658844 0.23390084505081177 0.06063578277826309 0.05607924237847328 0.10778980702161789 -0.1899922490119934 0.2198573499917984 -0.3722025752067566 0.06091022491455078 -0.07417742162942886 0.004305746406316757 -0.14383690059185028 -0.14743433892726898 0.19732123613357544 -0.15350636839866638 -0.45025044679641724 -0.027464918792247772 -0.08464737981557846 0.08951617777347565 -0.12281271070241928 0.02098271995782852 0.07356145977973938 -0.23797687888145447 -0.3193238079547882 -0.16071006655693054 -0.1785435974597931 -0.17237240076065063 0.2875828146934509 -0.5504571199417114 -0.13926447927951813 -0.04522411525249481 0.15264907479286194 -0.017833825200796127 -0.07059216499328613 -0.14189119637012482 -0.1537836343050003 -0.21391931176185608 0.34600698947906494 -0.2794700264930725 -0.04979008436203003 0.10925894975662231 -0.12556162476539612 0.24746572971343994 0.31170129776000977 0.05795469507575035 0.22805993258953094 -0.10413055866956711 0.42372435331344604 -0.18094387650489807 -0.06800098717212677 0.06425556540489197 -0.14305174350738525 -0.3226441740989685 0.44481176137924194 0.31752967834472656 0.16893942654132843 0.2587296962738037 -0.3314850628376007 0.08684984594583511 -0.013170536607503891 0.1793237030506134 -0.07159649580717087 0.07341569662094116 -0.0039659105241298676 0.11437106132507324 -0.35573798418045044 -0.2642999291419983 0.4116966128349304 0.2512531280517578 -0.07552898675203323 -0.2383316159248352 -0.02772700786590576 0.21146810054779053 -0.09828834235668182 0.009352978318929672 -0.17695659399032593 0.2111503779888153 0.3128507137298584 -0.16381999850273132 -0.008538708090782166 0.15058334171772003 0.08867968618869781 -0.03741087019443512 -0.20663143694400787 0.3700315058231354 0.12465853989124298 0.325168639421463 0.3697558045387268 0.000431794673204422 -0.04511609673500061 -0.003944233059883118 0.0617406889796257 -0.5165466070175171 -0.1600811779499054 -0.15508484840393066 -0.30221205949783325 0.14151126146316528 0.15476754307746887 0.024239826947450638 0.0907328873872757 -0.3972635865211487 0.018152840435504913 0.17434194684028625 -0.2298450767993927 -0.14921368658542633 -0.16410265862941742 -0.0915636345744133 0.2423800826072693 0.007097858935594559 -0.040023189038038254 -0.09804359823465347 0.2402055561542511 -0.0036503467708826065 0.029948310926556587 -0.0280773788690567 0.13701412081718445 -0.35973769426345825 -0.272762268781662 -0.26952219009399414 -0.3420577049255371 0.14339257776737213 0.32195308804512024 0.3396225869655609 -0.07121838629245758 0.2657549977302551 0.23570209741592407 -0.1127154752612114 -0.17549602687358856 -0.5235162973403931 0.011495251208543777 -0.1096893846988678 0.009476220235228539 -0.017841553315520287 0.0368855856359005 0.0288681797683239 0.23031975328922272 -0.25848233699798584 -0.26957568526268005 0.32328295707702637 -0.15426382422447205 -0.10025398433208466 -0.11066091805696487 0.261529803276062 -0.12043295055627823 0.08038288354873657 0.1818244755268097 0.20086754858493805 0.32248300313949585 -0.36308446526527405 -0.3037802278995514 -0.4052404463291168 0.1123674213886261 0.1002717837691307 0.018603065982460976 0.2095288336277008 -0.085631363093853 -0.17575088143348694 -0.03564626723527908 -0.1454239934682846 -0.019785115495324135 -0.03440533205866814 0.27922382950782776 -0.08586151897907257 0.43086904287338257 0.05709687992930412 0.2978070378303528 0.06251813471317291 0.07633502036333084 0.04374740645289421 0.06332704424858093 0.10445060580968857 0.12529897689819336 0.27928468585014343 0.14957404136657715 -0.2059752196073532 -0.012219948694109917 0.4278956949710846 -0.13234785199165344 -0.42184534668922424 -0.14231349527835846 0.19174206256866455 0.507681667804718 0.0929228663444519 -0.013145189732313156 -0.3046718239784241 -0.21416833996772766 -0.057265397161245346 0.09152966737747192 0.2982981503009796 -0.04029640555381775
dying -0.024399813264608383 0.07739408314228058 0.0895857959985733 0.20916800200939178 -0.24828360974788666 -0.160347580909729 0.17693614959716797 0.14042559266090393 -0.1586589813232422 -0.163091242313385 -0.25626781582832336 -0.3695001006126404 -0.1443367451429367 0.06157722696661949 -0.21675044298171997 0.2919299304485321 0.03388964384794235 0.1459892839193344 0.14076974987983704 -0.20986858010292053 0.1276237964630127 -0.37448668479919434 -0.1947687268257141 0.12251484394073486 -0.1145930290222168 0.06055339425802231 -0.17631131410598755 0.40274471044540405 0.22274915874004364 -0.07921550422906876 -0.13449835777282715 -0.053317852318286896 0.06216268241405487 0.097893625497818 -0.19026513397693634 0.09679204970598221 0.041142456233501434 -0.21970528364181519 -0.21095895767211914 -0.3394457995891571 0.3098418712615967 0.3769324719905853 -0.02266181819140911 -0.3244458734989166 -0.21750757098197937 -0.41313761472702026 0.02320294827222824 -0.07317786663770676 -0.28557366132736206 -0.1641763150691986 0.22138330340385437 -0.1581743061542511 0.38306891918182373 0.24067969620227814 -0.13015545904636383 0.30454790592193604 -0.09257197380065918 -0.18340155482292175 0.1641453355550766 0.013956531882286072 -0.09882236272096634 -0.39489829540252686 -0.19137033820152283 0.28546932339668274 -0.016197167336940765 0.24582837522029877 0.2843126952648163 0.08483654260635376 0.33087843656539917 -0.07332255691289902 0.02915516123175621 -0.1779288947582245 -0.14058023691177368 0.4878954589366913 0.07327637076377869 0.01259440928697586 0.32916656136512756 0.14806634187698364 -0.2780071794986725 -0.27444151043891907 0.1686881184577942 -0.15064416825771332 -0.19774898886680603 -0.21944482624530792 0.08059122413396835 -0.032121796160936356 -0.21564768254756927 0.29667168855667114 -0.2141691893339157 0.3153899610042572 -0.27026623487472534 0.15192639827728271 -0.09983314573764801 0.3397331237792969 0.08563294261693954 -0.034377820789813995 0.26053327322006226 0.05052594840526581 0.4804573357105255 0.015026062726974487 0.11291268467903137 -0.11853562295436859 -0.08281981945037842 -0.2759556174278259 -0.35118764638900757 -0.16373686492443085 0.015229856595396996 0.13251245021820068 -0.21115551888942719 -0.1312132477760315 -0.18228095769882202 -0.407806932926178 0.3313383162021637 0.1418016403913498 0.1810069978237152 -0.03415293246507645 0.029454343020915985 -0.025206822901964188 -0.22165226936340332 -0.044957153499126434 0.3105769753456116 -0.6236277222633362 0.22735559940338135 0.07727450877428055 0.1083645224571228 0.0009521488100290298 0.3253714442253113 0.22341184318065643 0.05994362384080887 -0.3660504221916199 0.16630873084068298 0.08508536219596863 0.08844197541475296 0.027552129700779915 0.45422354340553284 0.30051881074905396 0.3311440944671631 0.12596440315246582 -0.09177464246749878 -0.06621723622083664 0.22999900579452515 0.2935956120491028 0.3602602183818817 0.17445990443229675 -0.2267422080039978 0.25422459840774536 -0.011966478079557419 0.172847181558609 -0.0005978699773550034 0.12904328107833862 0.04563191533088684 -0.24723784625530243 -0.02790536731481552 -0.37474361062049866 0.3122892677783966 -0.523357093334198 -0.10871231555938721 -0.19123226404190063 0.02014574036002159 -0.07457561790943146 0.176101416349411 0.2568661570549011 -0.23582783341407776 -0.1906362771987915 0.23385268449783325 -0.006978221237659454 0.12817049026489258 0.21917305886745453 0.3465411067008972 -0.08493471145629883 0.23779481649398804 0.3811228573322296 0.08226781338453293 0.008100712671875954 -0.14594267308712006 0.20264950394630432 0.07533480226993561 0.4437354803085327 -0.27461355924606323 0.01750391721725464 -0.020773006603121758 0.07280342280864716 -0.16478346288204193 0.13398860394954681 0.04848521575331688 0.2482435405254364 -0.36868202686309814 0.39221155643463135 -0.20799040794372559 -0.1690036803483963 0.4363592565059662 -0.3063872754573822 0.18285542726516724 0.10423818230628967 0.23411794006824493 -0.1745741069316864 -0.013948192819952965 -0.2810809314250946 0.21183350682258606 0.08021858334541321
Mandy 0.17618103325366974 -0.34216800332069397 0.7475433945655823 -0.3206281065940857 0.8168262839317322 0.6224138140678406 0.250698983669281 0.1090642511844635 0.015203237533569336 -0.4005502760410309 0.18258218467235565 -0.13185127079486847 -0.5099116563796997 0.4845147430896759 0.6393072009086609 -0.34246012568473816 -0.4706985354423523 -0.3881768584251404 0.563660740852356 -0.4890840947628021 0.7494495511054993 0.810003399848938 -0.12105412781238556 0.06906503438949585 -0.24701321125030518 0.38521808385849 -0.4233556091785431 0.16235646605491638 0.1998378187417984 0.1403665840625763 0.33375343680381775 -0.06991294026374817 -0.3480296730995178 -0.06502269953489304 0.18076519668102264 0.30900368094444275 0.3676503002643585 0.5146769285202026 -0.5175394415855408 -0.0869067907333374 0.30703553557395935 -0.28820374608039856 -0.1439761221408844 0.6271339654922485 -0.2272515445947647 0.1311878114938736 0.08670602738857269 -0.5671098232269287 0.294845312833786 0.33392125368118286 0.5377321243286133 0.3482739329338074 0.05532190948724747 -0.06718014925718307 0.3866857588291168 -0.20764364302158356 -0.5569875240325928 -0.12419122457504272 0.03200613707304001 0.24842558801174164 -0.550761342048645 0.3764655292034149 -0.29893580079078674 -0.2625916004180908 0.12947580218315125 -0.31857386231422424 -0.4586831033229828 -0.3864283263683319 0.18692299723625183 0.44948264956474304 -0.3419695198535919 0.29868194460868835 0.2359817922115326 -0.7585310935974121 0.1718146950006485 0.6083800792694092 -0.11411185562610626 -0.3543784022331238 -0.33087441325187683 0.6320871710777283 0.8623761534690857 0.4039437174797058 0.2011851966381073 0.3929126560688019 -0.42544999718666077 0.6441823244094849 -0.02814505621790886 0.3023510277271271 -0.05542922765016556 -0.06377329677343369 0.2599095404148102 0.5810149312019348 0.11630744487047195 -0.16216398775577545 -0.10794692486524582 -0.4634825885295868 0.06043305993080139 -0.13901394605636597 0.11625014245510101 -0.8522502779960632 -0.19797134399414062 0.35273346304893494 0.0051950011402368546 -0.36350852251052856 -0.238897904753685 -0.2819966971874237 0.5648161172866821 -0.19320127367973328 -0.5964226722717285 0.4851735532283783 0.11247274279594421 -0.4012492895126343 0.1962074339389801 -0.14841912686824799 0.4596377909183502 -0.012533972039818764 -0.3745260238647461 -0.2127528041601181 -0.6548539400100708 -0.16410203278064728 -0.4811926782131195 0.389564573764801 -0.35983145236968994 -0.4497479498386383 0.05963832885026932 -0.3634933829307556 -0.11079191416501999 -0.33546948432922363 -0.013757925480604172 0.027859965339303017 -0.6688573956489563 -0.4694068133831024 -0.33291420340538025 0.21795913577079773 0.21979840099811554 0.3721066415309906 -0.13630764186382294 0.1975114345550537 -0.5120459794998169 -0.2722182869911194 0.29622864723205566 -0.32290005683898926 0.14418910443782806 0.6891728043556213 0.06776553392410278 -0.8073654770851135 0.5993176102638245 -0.15866604447364807 0.4299093782901764 0.19398440420627594 0.4227917194366455 0.005171086639165878 -0.1372593343257904 0.203730970621109 -0.3175103962421417 -0.6591178774833679 0.021714579313993454 0.31238389015197754 0.21447671949863434 -0.3934280574321747 0.30607616901397705 0.16504786908626556 -0.17764140665531158 0.7952550053596497 -0.7283746600151062 0.10622736066579819 0.18927720189094543 -0.3457172214984894 -0.4288567304611206 0.2399556040763855 0.4004731774330139 -0.30675235390663147 0.06416058540344238 -0.16581991314888 0.3621249794960022 -0.12052331119775772 0.055757611989974976 -0.5340780019760132 0.2824435532093048 0.10896018892526627 0.10470448434352875 -0.11024980992078781 0.9290004372596741 0.028233569115400314 -0.39560237526893616 -0.25663167238235474 -0.12021468579769135 -0.7690941095352173 0.2823054790496826 0.024533892050385475 0.3193247318267822 -0.29977524280548096 0.17514389753341675 0.005732379853725433 -0.27496522665023804 -0.004327358677983284 0.4599136710166931 -0.307560533285141 -0.17315146327018738 0.37950846552848816
Neptune_Navigator -0.2087477743625641 -0.005274439230561256 0.25812292098999023 -0.1073080524802208 0.213493213057518 -0.2417125403881073 0.287193238735199 -0.06610741466283798 0.31758764386177063 0.08366610109806061 -0.18814730644226074 -0.22324176132678986 0.39957213401794434 -0.28119897842407227 -0.08070802688598633 0.5179891586303711 -0.27211228013038635 0.18608534336090088 0.013943783938884735 -0.19152089953422546 0.11914484947919846 -0.1580185890197754 0.313736230134964 -0.0360860750079155 -0.048748984932899475 -0.1705327332019806 -0.01087602972984314 -0.022177675738930702 0.03827789053320885 0.1572052240371704 -0.23165543377399445 0.2832852602005005 0.39940229058265686 0.5791531801223755 -0.358644962310791 0.11513723433017731 0.2792571187019348 -0.2872958481311798 0.3864839971065521 0.22583073377609253 0.12155386805534363 -0.26388880610466003 0.09220952540636063 -0.05712190270423889 0.37701794505119324 -0.4867206811904907 0.18875613808631897 0.21146388351917267 0.24339452385902405 -0.1505632847547531 -0.0411619171500206 -0.20881366729736328 -0.3682160973548889 0.17915353178977966 -0.22396449744701385 0.29303979873657227 -0.2140083611011505 -0.15138877928256989 -0.0810825303196907 -0.2564244568347931 0.2101222276687622 0.1413288563489914 0.33525019884109497 0.05909918621182442 -0.20842386782169342 -0.3547157943248749 0.15646588802337646 0.3395164906978607 -0.0073913708329200745 -0.15266865491867065 0.3160894513130188 0.3625170588493347 -0.3955754041671753 -0.547787070274353 0.22242680191993713 -0.17106123268604279 0.34204617142677307 -0.5074046850204468 0.08730670809745789 -0.08750158548355103 -0.22863101959228516 -0.25130411982536316 0.2554607391357422 -0.07552742213010788 -0.07579660415649414 -0.23479634523391724 0.2800631523132324 -0.3109756410121918 0.25744032859802246 -0.15496307611465454 0.06480655819177628 0.3957669734954834 0.032798364758491516 0.6024373769760132 0.07419396936893463 0.3698878884315491 -0.26191282272338867 0.14764247834682465 0.09903775155544281 -0.28214552998542786 -0.31628695130348206 -0.43555304408073425 0.2148556262254715 0.11471803486347198 0.0027512218803167343 -0.09064443409442902 0.20575296878814697 -0.17306360602378845 0.14258171617984772 0.10359616577625275 -0.18018266558647156 0.19280438125133514 -0.03720805048942566 0.03150133043527603 0.14632093906402588 0.2562820613384247 0.4343494176864624 0.13777399063110352 0.2915591895580292 0.14010931551456451 0.1399231106042862 -0.21315589547157288 0.04943107068538666 -0.5081667900085449 -0.45579028129577637 0.10264338552951813 0.1467709243297577 -0.17081163823604584 0.19126306474208832 -0.1840936839580536 0.06977999210357666 -0.24749921262264252 0.04575223848223686 -0.16168996691703796 -0.1806548535823822 -0.1629486232995987 0.14164377748966217 0.5079890489578247 0.08321676403284073 -0.2595583498477936 0.006581904366612434 0.10973981022834778 0.0636834055185318 -0.19534268975257874 -0.14668890833854675 0.25170549750328064 0.13792788982391357 -0.041942745447158813 0.028686095029115677 -0.027607951313257217 0.01973807066679001 -0.20929278433322906 -0.22971168160438538 -0.013535156846046448 0.2936398983001709 -0.10515241324901581 -0.29057157039642334 0.09528279304504395 -0.1517965942621231 0.3769807517528534 -0.20782552659511566 -0.2798166275024414 0.2582148015499115 0.3482046127319336 -0.2129971981048584 0.05364726111292839 -0.15345408022403717 0.2908761501312256 0.13847514986991882 -0.047922272235155106 0.10752444714307785 -0.17035314440727234 -0.1556868851184845 -0.09814467281103134 -0.3189787268638611 -0.3756504952907562 0.5503222942352295 -0.15266640484333038 0.2594662010669708 -0.2227783203125 -0.12224573642015457 0.20533816516399384 -0.1427077353000641 -0.23949171602725983 -0.11371003836393356 0.1204536110162735 0.1765533983707428 0.2752924859523773 0.7099473476409912 -0.023155713453888893 0.28158503770828247 -0.17981766164302826 -0.27066683769226074 0.4063367247581482 0.2930312752723694 -0.310089111328125 0.4199743866920471 -0.004917297512292862 -0.3211975693702698 -0.3109561502933502
Club_Leadership -0.5378484129905701 -0.18580372631549835 -0.3285107910633087 0.48292413353919983 0.25857239961624146 0.2183515429496765 0.1738840490579605 0.32567909359931946 0.12761250138282776 -0.050427570939064026 0.08287334442138672 0.025445712730288506 -0.4709499776363373 0.6195569038391113 -0.4752587080001831 0.28811147809028625 -0.12501291930675507 -0.1857278048992157 -0.12360764294862747 -0.14851102232933044 0.17707204818725586 -0.4785497784614563 -0.24620945751667023 0.2844999432563782 0.1692250818014145 -0.10146553069353104 0.1326524317264557 0.08781111240386963 -0.56301349401474 0.18881012499332428 -0.3157230615615845 0.2336656153202057 -0.4411151111125946 -0.10915990173816681 0.42964568734169006 0.28133106231689453 -0.1018586978316307 -0.4877636432647705 -0.09168332815170288 0.5791233777999878 -0.29584571719169617 -0.16702771186828613 0.3829686641693115 -0.06180749461054802 0.5096816420555115 -0.1368311494588852 0.25435736775398254 0.3512107729911804 -0.14834775030612946 -0.10167983919382095 -0.009699953719973564 -0.11361957341432571 0.16842098534107208 -0.25053155422210693 0.4915672838687897 -0.0009430684149265289 -0.11103394627571106 0.2342960238456726 0.09358958899974823 0.15206290781497955 -0.3495471477508545 -0.42778950929641724 0.3057410418987274 0.21239829063415527 -0.22069084644317627 -0.2877359688282013 -0.05326974391937256 -0.39456748962402344 0.3219141960144043 -0.2228901982307434 -0.3067382574081421 0.09941188991069794 0.33390113711357117 0.5676885843276978 -0.0708882063627243 0.02490846998989582 0.14017674326896667 0.45368629693984985 0.011288182809948921 -0.21112899482250214 -0.00915062427520752 0.23538431525230408 0.6185242533683777 -0.12129034101963043 0.5002591609954834 0.17833305895328522 -0.04615754634141922 -0.0999009907245636 -0.6219738125801086 -0.21403288841247559 -0.09431502223014832 0.1601637452840805 0.6707113981246948 0.4834749102592468 -0.2741520404815674 -0.05478135123848915 0.002165982499718666 0.13957160711288452 0.13464589416980743 -0.13126279413700104 0.2951643764972687 -0.03460875153541565 0.28637802600860596 0.2600829005241394 -0.3133487105369568 0.5633420944213867 -0.4202285706996918 -0.34755295515060425 0.14426949620246887 0.09647570550441742 0.4454744756221771 0.3728863000869751 0.07907818257808685 0.22631804645061493 0.3939256966114044 -0.14928771555423737 0.28967586159706116 0.10502073168754578 -0.1440148502588272 0.45437052845954895 -0.06698812544345856 -0.1581522822380066 -0.34800124168395996 0.5743968486785889 -0.4069240689277649 0.6459382772445679 0.14159075915813446 -0.6199233531951904 -0.3572637736797333 0.38526904582977295 -0.2768649458885193 -0.2373034656047821 0.3906729221343994 -0.08017850667238235 0.3610764443874359 -0.19613032042980194 0.26225054264068604 -0.20148704946041107 0.06201038509607315 0.17805294692516327 0.060441724956035614 -0.5664919018745422 0.20656844973564148 -0.05557118356227875 0.16177651286125183 0.07573875784873962 -0.26176565885543823 0.01240512728691101 -0.1925106942653656 -0.36921194195747375 0.05189063400030136 -0.5501190423965454 0.09954564273357391 0.21579164266586304 0.05911887437105179 -0.18711094558238983 0.12792426347732544 -0.08977752178907394 0.15609972178936005 -0.2224399596452713 0.3555457293987274 0.09446172416210175 0.07863876223564148 -0.0925675481557846 -0.4407416582107544 -0.26106762886047363 -0.6108312606811523 0.041368938982486725 -0.08089657127857208 0.032778576016426086 0.04308091849088669 0.10169824957847595 -0.11143334954977036 0.13233378529548645 0.1355006843805313 0.4238201379776001 0.11177796125411987 0.15938237309455872 -0.006454279646277428 0.46031227707862854 0.02628290094435215 0.5638337731361389 -0.17338433861732483 0.26318594813346863 0.3035068213939667 -0.08721199631690979 -0.33505979180336 -0.4404684901237488 -0.30627351999282837 0.2220524102449417 -0.12333878874778748 0.02866443619132042 0.06684625148773193 0.15187910199165344 0.3121412694454193 -0.10724225640296936 0.02606647089123726 -0.009714096784591675 0.34684792160987854 0.031163103878498077
tracking_device -0.0902383029460907 -0.505938708782196 -0.2560372054576874 0.11981727182865143 -0.08090746402740479 -0.007911663502454758 -0.03692014887928963 0.22113312780857086 -0.15466523170471191 0.008689813315868378 -0.011252515017986298 -0.15380309522151947 -0.2513665556907654 -0.5899775624275208 0.03976244479417801 0.4474456310272217 -0.08704518526792526 0.2879537343978882 -0.25405171513557434 -0.49960511922836304 -0.12053985148668289 -0.36378246545791626 0.35140520334243774 -0.1478155255317688 0.322542279958725 0.41206613183021545 0.09008096903562546 0.3368971347808838 0.041847679764032364 0.45089948177337646 -0.19585105776786804 0.20392757654190063 0.35767483711242676 -0.02401002310216427 -0.10095097124576569 0.3227294981479645 -0.4350961148738861 0.500740110874176 0.5240694880485535 -0.10244351625442505 -0.09355081617832184 0.04368222877383232 0.28621071577072144 0.3525485694408417 0.5022465586662292 -0.34174102544784546 -0.2714032530784607 0.026468900963664055 0.24466656148433685 -0.06643959879875183 0.15941941738128662 -0.19602635502815247 -0.2570893168449402 -0.47899529337882996 -0.146152064204216 0.24301069974899292 0.23325477540493011 0.09523153305053711 -0.06430119276046753 -0.1571996510028839 -0.17883649468421936 -0.012287726625800133 0.10520163923501968 0.3418675363063812 0.039770662784576416 0.024135923013091087 0.40172696113586426 -0.27331647276878357 -0.11274721473455429 -0.07702725380659103 0.4286518692970276 0.053744710981845856 0.3810098469257355 -0.1018449068069458 -0.17331604659557343 -0.35752081871032715 -0.4099806845188141 0.0025469064712524414 0.0720633938908577 0.07628513872623444 -0.18525993824005127 0.040999770164489746 0.3237588405609131 -0.2430720180273056 0.37460947036743164 -0.26854363083839417 0.47349995374679565 -0.2028220146894455 -0.21507999300956726 0.16395369172096252 0.016059236600995064 0.30288413166999817 0.04435198754072189 0.38174620270729065 -0.145076185464859 -0.19373109936714172 -0.6285463571548462 0.20127423107624054 0.3114263415336609 -0.17329411208629608 0.049053654074668884 -0.5247762203216553 -0.30009958148002625 0.01517355628311634 0.08206647634506226 0.31537926197052 -0.2730189263820648 0.15962374210357666 -0.2834428548812866 -0.0010820366442203522 0.4266136884689331 0.29175475239753723 0.10828828811645508 -0.11814454197883606 -0.3641393482685089 -0.3591449558734894 0.16795264184474945 0.4000398814678192 -0.1872442066669464 0.20713534951210022 0.230680912733078 -0.04120253771543503 0.18346066772937775 -0.43468350172042847 0.046537548303604126 0.1474076211452484 0.21648581326007843 0.18081322312355042 -0.09628844261169434 -0.371922105550766 0.2005862146615982 -0.31079739332199097 0.30711498856544495 0.14024966955184937 0.1380649358034134 -0.2952839434146881 -0.1004701480269432 0.5678879022598267 -0.02365569956600666 0.05021478980779648 0.05527292564511299 -0.4071352779865265 0.1776421219110489 -0.05169522389769554 0.42759597301483154 0.03302882984280586 -0.41283220052719116 -0.19737239181995392 0.29621991515159607 0.5938440561294556 -0.4515021741390228 -0.6844562292098999 0.35464218258857727 0.42383676767349243 0.41871505975723267 -0.3086150586605072 -0.2225991189479828 0.08660262078046799 -0.24808186292648315 -0.44244030117988586 -0.36107558012008667 0.3292393088340759 -0.07795654237270355 -0.04512018337845802 -0.1671486347913742 0.042410094290971756 0.31400686502456665 0.11447376757860184 0.5896582007408142 0.09504766762256622 -0.534773051738739 -0.7006714940071106 -0.08946476876735687 -0.22032950818538666 0.3909066319465637 -0.025733189657330513 0.11384901404380798 -0.012022405862808228 -0.09952787309885025 0.3465808033943176 0.2876420021057129 0.017186623066663742 0.007814530283212662 0.3169025182723999 -0.12988513708114624 -0.13086125254631042 -0.09061945229768753 0.3885897994041443 -0.31869006156921387 0.5168147683143616 -0.23426499962806702 0.19414955377578735 -0.30474919080734253 0.32580214738845825 0.3648753762245178 -0.12499944865703583 -0.17561188340187073 0.1348837912082672 0.1839028298854828 0.09711802005767822
mystery_locker -0.16838987171649933 -0.14984063804149628 -0.27319180965423584 0.42371249198913574 -0.4246389865875244 -0.15442679822444916 0.29806065559387207 -0.09159283339977264 -0.2646198570728302 -0.1726970374584198 0.40603315830230713 0.3551335334777832 0.3928031623363495 0.37617027759552 0.3396505117416382 -0.17322546243667603 0.31606626510620117 0.07242533564567566 0.6281306743621826 -0.2913359999656677 -0.23527002334594727 0.3229849338531494 -0.4498372972011566 -0.38238346576690674 0.5112682580947876 0.017793621867895126 0.44449281692504883 0.5316930413246155 0.2043682485818863 0.44455012679100037 -0.04917684197425842 0.22241833806037903 0.13761167228221893 0.06992641091346741 0.001936446875333786 -0.03375452756881714 -0.08753926306962967 -0.572090208530426 0.5417841672897339 0.13679802417755127 -0.5326650738716125 0.5988515615463257 0.16304437816143036 -0.03732059895992279 -0.15691746771335602 0.48426640033721924 0.4738031029701233 -0.5622585415840149 -0.41820088028907776 -0.14928367733955383 0.36710622906684875 0.46981334686279297 0.051662854850292206 -0.6945656538009644 -0.3794369101524353 -0.26435139775276184 0.20361822843551636 0.0784250795841217 -0.13517752289772034 0.46392011642456055 -0.44190770387649536 -0.3180740773677826 0.003176184371113777 -0.3818502426147461 -0.1903907060623169 -0.03350091725587845 0.2336317002773285 -0.09261558204889297 -0.45975634455680847 -0.028962671756744385 -0.45575886964797974 0.34576359391212463 0.05674377828836441 -0.14802420139312744 -0.23966659605503082 0.4051690995693207 -0.036109715700149536 -0.20322805643081665 -0.6597285270690918 -0.2648499011993408 0.580479085445404 -0.24303209781646729 0.025895755738019943 -0.06913480162620544 0.13896682858467102 -0.302571564912796 -0.3417985439300537 -0.611853837966919 0.07910050451755524 -0.10340076684951782 -0.20000766217708588 0.04574812576174736 0.016810400411486626 -0.651730477809906 -0.07161156833171844 0.4300658106803894 0.006327461451292038 -0.45885756611824036 0.2627348005771637 -0.08887330442667007 0.25415748357772827 -0.3135981559753418 0.2078198492527008 0.19562456011772156 -0.3220882713794708 0.4848567545413971 -0.09063684940338135 -0.2685803771018982 0.35864806175231934 -0.24440953135490417 0.6458069682121277 0.11957276612520218 -0.2159743756055832 0.06388290226459503 -0.26872891187667847 -0.6095095872879028 -0.6614222526550293 -0.15714441239833832 0.11289623379707336 0.7255205512046814 -0.03000752255320549 -0.09961158037185669 0.0738314688205719 -0.40213197469711304 0.16556090116500854 -0.011762386187911034 -0.5002460479736328 0.07518520206212997 -0.1364727020263672 -0.02531598135828972 -0.43276381492614746 0.549229621887207 -0.12372709065675735 0.12809082865715027 0.4404476284980774 -0.0497882179915905 0.28907060623168945 -0.19228217005729675 0.6227653622627258 -0.13025274872779846 -0.04101983830332756 -0.046659424901008606 0.27041715383529663 -0.37375974655151367 0.5204484462738037 0.01956300251185894 0.1190522313117981 0.23634448647499084 -0.15232163667678833 -0.448331356048584 0.47877344489097595 -0.0448019877076149 0.23732203245162964 0.08513079583644867 -0.1301582008600235 -0.058489616960287094 -0.2773643434047699 0.10121957212686539 0.40309956669807434 0.359382301568985 -0.043378572911024094 0.1894039809703827 -0.4712204039096832 -0.26374801993370056 0.23408566415309906 0.27474015951156616 -0.003982599824666977 -0.42523840069770813 -0.0804036557674408 -0.3787902295589447 -0.340492308139801 -0.09146033227443695 -0.39137786626815796 -0.5300031304359436 -0.07679249346256256 -0.1101759523153305 -0.09712940454483032 0.07381131500005722 -0.6764762997627258 -0.45922228693962097 -0.34668564796447754 -0.38063210248947144 -0.19415979087352753 -0.1413361132144928 -0.14328622817993164 0.6032175421714783 -0.6507776975631714 0.28153055906295776 0.26637062430381775 -0.4346315562725067 0.21648961305618286 0.2106437385082245 0.16975198686122894 0.252540647983551 -0.072264663875103 -0.048655491322278976 -0.18877579271793365 -0.20635750889778137 0.26053667068481445 0.10283799469470978
alibi 0.537786602973938 -0.15579472482204437 0.5165925025939941 0.1976054161787033 0.14576832950115204 -0.2965604066848755 0.15768945217132568 0.5713297128677368 0.2169833481311798 0.7943758368492126 -0.5569893717765808 -0.00542047992348671 -0.15114562213420868 -0.21923083066940308 0.03839109465479851 0.32501572370529175 0.05020932853221893 0.3391900658607483 -0.6217816472053528 0.26772749423980713 -0.2845478653907776 -0.5304925441741943 -0.26590973138809204 -0.39757293462753296 0.09779711067676544 0.03615017235279083 -0.3145991563796997 0.23779520392417908 -0.4650472402572632 -0.3024299442768097 0.02277638390660286 -0.17646551132202148 0.1064821109175682 0.19032827019691467 -0.1264350861310959 0.31686174869537354 0.09115298092365265 0.7921321988105774 0.3294876217842102 -0.14374732971191406 -0.02090480551123619 0.023112842813134193 0.2074516862630844 0.11253243684768677 -0.09819000959396362 -0.46620866656303406 0.06601142138242722 0.5248990058898926 -0.0362614206969738 0.6490804553031921 -0.1391243189573288 -0.22757406532764435 -0.2718339264392853 -0.8145164847373962 0.026128247380256653 0.21850858628749847 0.19114337861537933 -0.468381404876709 0.5059791207313538 -0.709794282913208 0.3552600145339966 0.43754449486732483 0.15600980818271637 -0.495947003364563 0.5142434239387512 -0.49159225821495056 0.15583263337612152 0.5951781868934631 -0.11437658965587616 0.0396113321185112 0.37198108434677124 0.01645783893764019 -0.1343020498752594 -0.20117643475532532 -0.05778440833091736 0.30833113193511963 -0.41212064027786255 0.035040050745010376 0.19094014167785645 0.18581975996494293 -0.08230538666248322 -0.09347766637802124 -0.25592270493507385 -0.5815877318382263 0.3163936734199524 -0.031596895307302475 0.4413687288761139 0.1931617707014084 0.41224804520606995 -0.6845101118087769 0.2634120583534241 -0.08646674454212189 0.20479300618171692 0.545440673828125 0.5370192527770996 -0.2014576941728592 0.10482598841190338 -0.09630537778139114 0.07231311500072479 -0.04239993542432785 0.10917293280363083 -0.2456856369972229 0.3161381483078003 0.09679779410362244 -0.6608058214187622 0.12426089495420456 0.014398522675037384 0.23335589468479156 -0.1266445368528366 0.3860941231250763 0.6904513239860535 0.4362933933734894 0.2594248354434967 0.22010841965675354 -0.46298202872276306 0.050276994705200195 0.4563465416431427 0.25650274753570557 -0.11025934666395187 -0.5384069085121155 0.19081081449985504 -0.09751452505588531 0.23081140220165253 0.11084987223148346 0.3437764048576355 -0.07216702401638031 0.4040137827396393 0.07570907473564148 0.2565480172634125 0.11831214278936386 0.041983410716056824 -0.10410858690738678 -0.06933392584323883 0.4352262020111084 -0.4612029194831848 -0.24224182963371277 0.22527210414409637 0.001883581280708313 0.06575200706720352 0.20876246690750122 -0.1217055469751358 0.5268579125404358 -0.4287402331829071 0.7865582704544067 -0.4555377662181854 -0.1491057276725769 -0.4660000503063202 0.3774203956127167 0.210560142993927 0.7599119544029236 -0.14657345414161682 -0.6647902131080627 -0.3899329900741577 0.5211220383644104 0.09025983512401581 0.5942049622535706 0.7474378943443298 0.6099878549575806 0.33743536472320557 0.17366531491279602 -0.18918879330158234 0.09962958097457886 -0.33636602759361267 -0.17010508477687836 -0.44681647419929504 -0.12665395438671112 -0.2538369297981262 0.33875617384910583 0.06496988981962204 0.491990864276886 -0.12841419875621796 0.04828546196222305 0.16960038244724274 0.2197946459054947 0.12231972813606262 -0.1631842851638794 -0.23628805577754974 -0.13713990151882172 -0.13943548500537872 -0.026248568668961525 0.30336421728134155 0.47625255584716797 -0.16292530298233032 -0.1789408177137375 0.10663047432899475 0.42547234892845154 -0.0771220251917839 -0.17373326420783997 0.7902354598045349 0.30626699328422546 -0.4994894862174988 -0.291817843914032 -0.08576284348964691 0.45235687494277954 -0.06743039935827255 -0.25888627767562866 0.10899176448583603 0.06334932148456573 -0.27734315395355225 -0.34202033281326294
Gant 0.0679100900888443 0.031940050423145294 0.14372265338897705 -0.2167382538318634 -0.12274640798568726 0.1637275218963623 -0.10480519384145737 -0.23965837061405182 0.15379773080348969 -0.10023050010204315 -0.11940379440784454 -0.20123577117919922 0.49642372131347656 -0.22595255076885223 -0.012048294767737389 -0.024965176358819008 0.5915977358818054 -0.06699220091104507 0.026967983692884445 -0.3535398840904236 -0.13648459315299988 -0.4004145860671997 -0.14060592651367188 0.1080264002084732 0.08427480608224869 -0.023065811023116112 0.1758415549993515 -0.011259393766522408 0.2702989876270294 -0.23670275509357452 -0.3842967450618744 -0.2728787362575531 -0.10612578690052032 0.18134623765945435 0.20479661226272583 -0.5154518485069275 0.02077353000640869 0.10961058735847473 0.2299363613128662 -0.17304416000843048 0.22236031293869019 0.1317586600780487 -0.05954593047499657 0.068692646920681 0.2503716051578522 0.10544893890619278 0.26513323187828064 0.21148836612701416 -0.2231254279613495 0.034171368926763535 -0.25412577390670776 -0.028138302266597748 -0.016930196434259415 0.40688440203666687 0.18193116784095764 0.3323003947734833 0.2847973108291626 0.4779302179813385 -0.2738870680332184 0.2784787118434906 0.18064828217029572 0.06288955360651016 0.2648899555206299 -0.10923919081687927 -0.08933845162391663 -0.27040746808052063 0.1690778136253357 -0.009715579450130463 0.2670009434223175 -0.09451070427894592 0.07353527098894119 0.1759808510541916 0.1056065559387207 0.6693098545074463 -0.17852571606636047 -0.007002066820859909 0.05430150777101517 0.1614888608455658 0.22959250211715698 -0.6384332180023193 -0.12544941902160645 -0.41470789909362793 0.05899619683623314 -0.24335187673568726 0.6195282936096191 -0.4366573095321655 0.23745685815811157 0.16828158497810364 0.01149764284491539 0.3384302854537964 0.49854734539985657 -0.6425394415855408 0.05584125220775604 -0.23067614436149597 0.5968944430351257 0.002139110118150711 0.3815031349658966 0.37083885073661804 0.13613994419574738 0.195556178689003 0.3911581039428711 0.3252047300338745 0.3479395806789398 0.19445961713790894 0.11768443137407303 0.12938059866428375 -0.4712466597557068 0.15801838040351868 0.22793754935264587 -0.5416763424873352 -0.3651721775531769 -0.107974573969841 0.06356719881296158 0.23961111903190613 0.2643013894557953 -0.18931931257247925 -0.34279799461364746 0.2764478027820587 0.07151446491479874 -0.4231427311897278 -0.30539458990097046 -0.5554329752922058 -0.12439481168985367 -0.029095306992530823 0.032873138785362244 0.04356590658426285 -0.40992313623428345 0.30212950706481934 0.46060824394226074 -0.6505019068717957 0.06655897945165634 0.08271985501050949 -0.05997896194458008 -0.32944783568382263 0.1834402084350586 -0.31082016229629517 -0.10907582938671112 -0.0995633527636528 -0.2311749905347824 0.29359763860702515 -0.5174679160118103 0.3593255579471588 0.18673554062843323 0.04148926958441734 -0.2233227640390396 -0.07023891806602478 -0.007856395095586777 -0.3962506055831909 0.07009775191545486 -0.140885591506958 -0.06673862040042877 0.15853631496429443 0.3986865282058716 0.18796059489250183 0.07962358742952347 -0.2681846022605896 -0.1904696524143219 0.16344615817070007 -0.3890513777732849 0.6338337659835815 -0.5034064054489136 -0.1686525046825409 -0.5677590370178223 0.01938163861632347 0.2386404573917389 -0.08687785267829895 -0.06480966508388519 0.5537579655647278 0.262597918510437 -0.15399648249149323 -0.34775876998901367 0.205499529838562 0.1789371371269226 0.14034554362297058 0.13821005821228027 -0.03147553652524948 0.305692195892334 0.37065190076828003 0.01629658229649067 0.29429230093955994 -0.5468161106109619 -0.07887647300958633 -0.1346149444580078 0.1778903752565384 -0.016484644263982773 -0.29126131534576416 -0.1398748904466629 0.28178563714027405 0.11692935973405838 -0.22649163007736206 -0.023593150079250336 -0.15367835760116577 -0.18160748481750488 -0.38555750250816345 -0.13795457780361176 -0.03542590141296387 -0.20610952377319336 -0.15605533123016357 -0.06404004991054535 -0.05906817317008972
Candidate_A 0.05129928141832352 0.13460206985473633 -0.02787880040705204 0.034925952553749084 0.07646015286445618 -0.1521846055984497 -0.3602166175842285 -0.20746248960494995 0.20259875059127808 0.12208423018455505 0.20822548866271973 0.04142620414495468 0.24858498573303223 -0.26997271180152893 0.1457752287387848 0.23209141194820404 -0.3719426095485687 -0.3589990437030792 -0.05085273087024689 0.29818737506866455 0.15835651755332947 -0.3182995915412903 -0.5432555079460144 -0.43577200174331665 -0.27876466512680054 -0.40169474482536316 -0.2593231797218323 -0.09995298832654953 -0.0826847106218338 -0.26070767641067505 -0.11463825404644012 -0.363305002450943 0.6454323530197144 -0.1814381629228592 -0.14880912005901337 0.40907564759254456 -0.4889034926891327 -0.004941212013363838 -0.2925540804862976 0.3841411769390106 -0.005992835387587547 -0.6240949630737305 -0.029745761305093765 -0.03652209788560867 0.43979090452194214 -0.021499518305063248 -0.08718761801719666 0.20610520243644714 0.2882872521877289 -0.3215261697769165 -0.17752042412757874 -0.18400730192661285 -0.24903604388237 0.2806732654571533 0.25564292073249817 0.5375110507011414 0.21760107576847076 0.5163509845733643 0.4568081796169281 0.07605016231536865 -0.047974757850170135 0.39742299914360046 0.4713422954082489 -0.030037542805075645 0.026353346183896065 -0.45312535762786865 -0.47225865721702576 0.006557285785675049 0.32551246881484985 -0.18528269231319427 -0.19853384792804718 0.0689408928155899 0.18793225288391113 0.006929649040102959 -0.0028263945132493973 -0.5360735654830933 -0.0677899420261383 -0.02073156088590622 0.13976126909255981 0.0030545461922883987 -0.35910820960998535 0.6281222105026245 0.09068727493286133 -0.002612261101603508 -0.3533268868923187 0.009180208668112755 -0.13627013564109802 0.019139060750603676 0.01271400973200798 0.29698869585990906 -0.09939595311880112 -0.1501285433769226 0.3281506597995758 0.00797017477452755 -0.5217030644416809 0.26700741052627563 -0.051460281014442444 0.48839500546455383 -0.015464646741747856 0.3553858697414398 0.18881525099277496 -0.04682639613747597 -0.007006403058767319 0.1904878318309784 0.12396436929702759 -0.14982545375823975 -0.09706757217645645 -0.012359848245978355 0.30332493782043457 -0.003329552710056305 -0.16425424814224243 0.5552912950515747 0.05294725298881531 0.15664425492286682 -0.27804088592529297 0.41433408856391907 0.527708888053894 0.059936657547950745 -0.15134760737419128 -0.5386120676994324 0.025741085410118103 -0.1465766429901123 0.06835398823022842 -0.4341580867767334 -0.2628617584705353 0.0729556679725647 0.07991153001785278 -0.19485639035701752 0.06970156729221344 -0.22154265642166138 0.3069518804550171 0.011823641136288643 0.21737438440322876 -0.07017514109611511 0.09652645140886307 -0.05468878149986267 -0.23433150351047516 0.08113479614257812 -0.05070427060127258 -0.00536133348941803 0.15988029539585114 0.03931998461484909 -0.15152683854103088 -0.005275724455714226 0.19775231182575226 0.23995308578014374 -0.12382374703884125 0.17960546910762787 -0.38773825764656067 0.052886106073856354 -0.4482727646827698 -0.4839879870414734 0.16102367639541626 -0.037135012447834015 0.01756114326417446 0.5932613611221313 -0.2168228030204773 0.5332670211791992 -0.1931806355714798 0.1376928836107254 -0.4060461223125458 -0.01529189944267273 0.50786954164505 -0.007823988795280457 0.08576943725347519 -0.15614202618598938 0.0260152630507946 0.0046227313578128815 0.43175825476646423 0.6594482660293579 0.32114365696907043 -0.3098776340484619 -0.09086665511131287 0.24645103514194489 -0.30536672472953796 0.27226951718330383 0.2523775100708008 -0.28307244181632996 0.1434343457221985 -0.49155643582344055 -0.06450837105512619 0.06378725171089172 0.32697686553001404 -0.5495132803916931 -0.00027163513004779816 0.337074339389801 0.2748492658138275 0.3862515091896057 0.1770693063735962 -0.03982331603765488 -0.35621827840805054 0.47462424635887146 -0.3429802358150482 0.06909588724374771 -0.05564066767692566 -0.33955422043800354 0.009420322254300117 0.2436668425798416 0.24304869771003723 0.1589551866054535
cult -0.1923549771308899 0.23102113604545593 -0.022042829543352127 -0.13164879381656647 -0.38314715027809143 -0.39035898447036743 -0.017351461574435234 0.13527143001556396 -0.36510953307151794 -0.13618215918540955 0.2515716850757599 -0.2453964352607727 0.19654005765914917 0.04386240616440773 0.19065254926681519 -0.0037453025579452515 0.35834240913391113 -0.013775268569588661 0.1077311635017395 -0.02174035832285881 0.0029177218675613403 0.26386743783950806 -0.38806405663490295 -0.3737591505050659 0.11504871398210526 -0.23153600096702576 0.17387346923351288 -0.4670906662940979 0.2117381989955902 0.14128902554512024 0.049164965748786926 -0.10460851341485977 -0.12858512997627258 0.03178856521844864 -0.00914839282631874 -0.21916931867599487 -0.44804370403289795 0.08607102930545807 -0.3707570731639862 0.1503365933895111 0.5859398245811462 -0.013565931469202042 -0.01368434727191925 -0.2976626455783844 0.05556754022836685 -0.1593608409166336 0.19308032095432281 -0.19616955518722534 -0.3307564854621887 -0.19620850682258606 0.06869176030158997 -0.45441317558288574 0.11755472421646118 0.3312561511993408 -0.30882728099823 0.5197144746780396 -0.09958162903785706 0.036219604313373566 0.10157008469104767 -0.18682505190372467 -0.04327187314629555 -0.38901621103286743 -0.19747041165828705 0.21784308552742004 -0.08206687867641449 -0.07363061606884003 0.14306071400642395 -0.07060278207063675 0.36235755681991577 -0.1310952752828598 -0.08163334429264069 -0.0705316960811615 -0.3337095081806183 -0.18968500196933746 0.23394905030727386 -0.28688615560531616 0.04627678170800209 0.047899648547172546 0.2946624159812927 0.09341265261173248 -0.5242128968238831 -0.06397455930709839 -0.04779764637351036 -0.060896821320056915 0.03909464180469513 -0.4926009774208069 0.1769709587097168 0.43048903346061707 0.06249256432056427 0.263945609331131 -0.10891538858413696 -0.03190554678440094 -0.4510125517845154 -0.13096848130226135 0.1267107129096985 0.10281479358673096 0.37930309772491455 0.13069336116313934 -0.2782071530818939 0.015040364116430283 0.28739163279533386 0.09816717356443405 -0.39293569326400757 -0.06182819604873657 -0.15275587141513824 -0.010784771293401718 -0.08795259147882462 0.0662747398018837 0.01712604984641075 0.1389901340007782 0.05663923919200897 -0.07119889557361603 0.1284925788640976 -0.14172852039337158 0.17645645141601562 0.34045183658599854 -0.01314295269548893 -0.13014347851276398 0.20074424147605896 0.05963908135890961 -0.38834866881370544 0.16247612237930298 0.192714661359787 0.3213222622871399 0.14131030440330505 0.387717068195343 0.08095753192901611 -0.03389090299606323 0.05687164515256882 0.08217766135931015 0.3536015748977661 0.3498701751232147 0.10505550354719162 -0.1219925582408905 0.466352254152298 0.2466781586408615 -0.2782333791255951 -0.040167830884456635 -0.31424325704574585 -0.15518227219581604 0.015270113945007324 -0.111103355884552 0.3835899829864502 0.20215463638305664 -0.2870526611804962 0.2810528576374054 -0.2099815458059311 -0.1499267965555191 0.0707022100687027 -0.12972337007522583 -0.01467243954539299 0.0839693546295166 -0.04273143410682678 0.18901872634887695 0.5209457278251648 0.009047593921422958 -0.2571243345737457 0.15056851506233215 -0.1865578591823578 -0.09614042192697525 0.07246506214141846 -0.186803936958313 -0.2327747493982315 -0.0035427361726760864 -0.27749496698379517 -0.12849915027618408 0.146494060754776 -0.2124791294336319 0.06660585105419159 -0.0017317570745944977 -0.10413281619548798 0.056132201105356216 0.04731608182191849 -0.04523034393787384 0.07043278217315674 0.11385293304920197 0.04251822084188461 0.011369138956069946 -0.20005327463150024 0.28452256321907043 -0.05000583827495575 0.13513396680355072 -0.08616893738508224 0.22429461777210236 0.07130907475948334 0.010564606636762619 -0.011404262855648994 0.24725419282913208 -0.06566760689020157 -0.3930447995662689 0.06797423958778381 -0.1481911540031433 0.07054083049297333 -0.19267535209655762 0.03653893619775772 -0.062138862907886505 0.11944079399108887 0.19048002362251282 -0.1747765690088272 0.0780525803565979
Veronica_Mars -1.073011875152588 -0.8092593550682068 0.7780984044075012 -0.422199547290802 1.0850129127502441 0.8531165719032288 -0.48529955744743347 0.2823605537414551 0.5824835896492004 0.4018745720386505 -0.6461486220359802 0.9434341788291931 -0.32943037152290344 1.7512277364730835 0.3653324246406555 -0.13726580142974854 -1.3226490020751953 -0.149063840508461 1.01418936252594 -0.4183063805103302 0.1726580709218979 0.8307819962501526 -0.466038316488266 -1.3133474588394165 -0.5632526278495789 0.6932225227355957 -0.19978098571300507 0.21819524466991425 0.11241931468248367 0.03274393826723099 1.5035580396652222 -0.3753528594970703 0.5316230058670044 -0.1880350410938263 -0.26465344429016113 -0.10671567916870117 -0.5476387143135071 0.5265487432479858 -0.13942648470401764 0.9574121236801147 -0.29015475511550903 -0.37401723861694336 -1.0003618001937866 1.0707628726959229 0.23265378177165985 0.7327778339385986 -0.6108666062355042 -0.6528220772743225 -0.44384637475013733 0.6198629140853882 0.5253903269767761 0.8460195064544678 0.24233213067054749 -0.5068432092666626 0.5549168586730957 -0.4670366048812866 -0.5503748655319214 0.7260816097259521 -0.11472626030445099 -0.3431673049926758 -0.8786270022392273 0.8318066596984863 0.24011802673339844 -0.0870693027973175 -0.5487821698188782 0.7463389039039612 -1.1415289640426636 -0.2962346076965332 0.9841787815093994 1.1234039068222046 -0.4390793442726135 0.3737596273422241 -0.10753142833709717 -1.0114582777023315 1.517727255821228 0.2948782444000244 -0.5516805648803711 -0.20980529487133026 0.0387466698884964 1.5722310543060303 0.8932062387466431 0.2754001021385193 0.9922633767127991 -0.22178004682064056 -0.38846224546432495 -0.09421002864837646 -0.2860972583293915 -0.7947538495063782 -1.0407222509384155 0.13842818140983582 0.7404811978340149 -0.672341525554657 1.511522650718689 1.1894447803497314 -0.5881835222244263 0.5496928095817566 -0.894245445728302 0.09206131100654602 -0.34403738379478455 -0.3552990257740021 -0.9539916515350342 0.9311120510101318 -0.5778074264526367 -0.39459937810897827 0.2307606190443039 0.23445409536361694 0.4265952706336975 -0.7519124150276184 -0.8779095411300659 -0.2921498119831085 0.37709924578666687 -0.13592147827148438 0.006934682838618755 1.2739228010177612 1.1049487590789795 0.31939855217933655 0.6077393889427185 -0.4830477237701416 -0.4533902704715729 -1.1008340120315552 -0.022232096642255783 0.7313196659088135 -1.2698391675949097 -0.5754333138465881 0.2309870570898056 -0.4115792512893677 0.9367884397506714 0.3249902129173279 -0.9455344080924988 0.37985315918922424 -1.250096321105957 -0.31486934423446655 -1.1239573955535889 1.4945677518844604 -0.10561836510896683 0.29268744587898254 0.2862856388092041 -0.18069680035114288 0.16707642376422882 0.1312178522348404 -0.13699579238891602 -0.30388322472572327 -1.3569495677947998 0.3902033269405365 0.9155976176261902 -0.7810261845588684 0.372428297996521 -0.08228405565023422 0.4488339424133301 0.5388325452804565 -0.1513463407754898 -0.5403257608413696 -0.5869027376174927 0.6432085037231445 -1.2458951473236084 1.1070380210876465 -1.340341567993164 0.08110090345144272 -0.3050190508365631 0.008879764005541801 -0.1784851849079132 -0.5296205282211304 -0.35986727476119995 1.6804920434951782 -0.7125447392463684 1.0189380645751953 0.97440505027771 -0.08345213532447815 -0.3091956675052643 1.0355783700942993 -0.6072167754173279 -0.8597457408905029 -0.42514634132385254 0.3461250960826874 -0.11263620108366013 -0.6440337300300598 0.48343271017074585 -0.7976915240287781 0.12178130447864532 0.5136709213256836 -0.2190944403409958 -0.9857760667800903 1.209351658821106 -0.751626193523407 -0.07394473999738693 0.8594679832458496 0.7811641097068787 -0.1121942326426506 0.300839364528656 0.6849470138549805 -0.16613811254501343 0.9011539816856384 1.0287551879882812 -0.7552764415740967 -0.40558382868766785 0.7777026891708374 0.47219377756118774 0.22600582242012024 -1.2531194686889648 1.0201576948165894
hard_drives 0.06143692880868912 -0.27457544207572937 0.31148937344551086 -0.3173811435699463 -0.35892918705940247 0.18742094933986664 0.12561839818954468 -0.007204331457614899 -0.11603733897209167 0.27415695786476135 -0.4440881013870239 -0.028326814994215965 -0.1526000201702118 -0.11337593197822571 -0.24278120696544647 0.02557259239256382 -0.2502583861351013 -0.3084280490875244 0.04451727867126465 0.06232210993766785 -0.19120188057422638 -0.023021608591079712 -0.04281998053193092 -0.010156683623790741 0.11620672792196274 0.07445821911096573 0.34267657995224 -0.20149555802345276 -0.15827298164367676 0.06028524413704872 0.2438012808561325 0.16855384409427643 -0.01257336512207985 -0.40775832533836365 -0.06596577167510986 0.3198331892490387 0.38633063435554504 0.0138646699488163 0.4250798225402832 -0.0151565782725811 -0.13407506048679352 0.13119065761566162 -0.037700485438108444 0.13367316126823425 0.1661001294851303 -0.2914412021636963 -0.09054002910852432 -0.11775165796279907 -0.6449286937713623 -0.046668387949466705 -0.013028141111135483 -0.4470357894897461 -0.5379951596260071 0.05582413077354431 -0.20246389508247375 0.23555387556552887 -0.0941571518778801 0.1735266000032425 -0.403490275144577 -0.27190539240837097 -0.027498718351125717 -0.1184520348906517 0.06671099364757538 -0.1649748682975769 0.2138361781835556 0.06970655173063278 -0.08087822794914246 -0.021655509248375893 0.22898806631565094 -0.12651491165161133 0.13052016496658325 -0.4190400540828705 -0.18276658654212952 0.5187999606132507 0.08768455684185028 0.2998514473438263 -0.11094862222671509 0.1451176553964615 -0.14224068820476532 -0.16684535145759583 -0.35129308700561523 -0.07734939455986023 0.08315487951040268 0.4414514899253845 -0.1707109808921814 -0.07395630329847336 0.11783507466316223 0.19942542910575867 0.10344831645488739 0.23180139064788818 -0.11200818419456482 -0.3829828202724457 -0.1167687177658081 -0.13143329322338104 0.22771327197551727 0.38368624448776245 0.2995639443397522 -0.22550556063652039 -0.007274787873029709 0.37018707394599915 -0.5306820869445801 0.32194241881370544 -0.04253637045621872 -0.3247123956680298 0.008802998811006546 0.6228324770927429 -0.11183615028858185 0.4531618356704712 -0.11030234396457672 -0.0005433224141597748 -0.19245645403862 -0.14530439674854279 0.05926242843270302 0.33926019072532654 0.6140714883804321 0.03746827319264412 0.0987936481833458 -0.08922945708036423 0.3244071900844574 0.01357458345592022 0.04674617946147919 0.02633783593773842 0.03278447315096855 0.14308913052082062 -0.10152328014373779 0.3056640625 -0.06369629502296448 -0.3636553883552551 -0.05880097299814224 0.17608200013637543 0.28195956349372864 -0.04144158214330673 -0.04684342443943024 0.3342061936855316 0.0017979126423597336 -0.1713801771402359 0.32537972927093506 0.31381547451019287 -0.0007573571056127548 0.07017359137535095 -0.46543851494789124 0.06474028527736664 -0.03620550036430359 -0.35190698504447937 0.392461895942688 -0.02450970746576786 -0.26462316513061523 0.44312694668769836 0.05110390484333038 0.10910338908433914 0.19225414097309113 -0.18811123073101044 -0.22758758068084717 -0.3265790641307831 0.14230385422706604 -0.3192230463027954 -0.22376763820648193 0.04682910442352295 -0.1173376590013504 0.25918418169021606 0.2160416543483734 -0.05613330751657486 -0.19991084933280945 -0.08255141228437424 -0.05628780648112297 -0.12596778571605682 -0.18743810057640076 0.040039196610450745 0.4175228476524353 -0.24832983314990997 0.18345296382904053 0.38612014055252075 -0.3198395371437073 -0.3462000787258148 -0.026319360360503197 0.26232388615608215 0.24693386256694794 -0.1515648066997528 -0.2736215591430664 0.0897025614976883 -0.2811076045036316 0.34367164969444275 -0.29692378640174866 0.16569609940052032 -0.026955315843224525 0.06919580698013306 -0.10521291941404343 -0.15408775210380554 0.09163010865449905 0.29286009073257446 -0.05589227005839348 -0.5411198735237122 -0.08822932094335556 -0.036730892956256866 -0.44184595346450806 0.2981009781360626 0.31720104813575745 -0.4025796055793762 0.3317926228046417 0.045021239668130875
Yolanda -0.34557029604911804 -0.09824467450380325 -0.08692233264446259 -0.0749991163611412 0.10081028193235397 -0.218067467212677 0.14690342545509338 0.14429707825183868 -0.003029586747288704 -0.08019854128360748 0.25799641013145447 0.05094761401414871 -0.29308733344078064 -0.3811558187007904 0.2879471182823181 -0.5225147008895874 0.20129993557929993 -0.06919866800308228 -0.030118361115455627 -0.10535290837287903 -0.20556776225566864 -0.2108326256275177 -0.18413598835468292 -0.13055704534053802 0.060845643281936646 -0.004205089062452316 0.17047446966171265 -0.053605154156684875 0.1873183250427246 0.34032073616981506 -0.036042507737874985 0.42808327078819275 0.05154986307024956 -0.25063374638557434 0.275342732667923 -0.4119642376899719 0.2625628709793091 -0.40695440769195557 -0.1366298794746399 -0.14710985124111176 -0.21373072266578674 -0.2950577437877655 0.20280581712722778 0.3978840410709381 0.08475679159164429 -0.08582150936126709 0.1076832115650177 -0.10228745639324188 0.07935908436775208 0.14515984058380127 0.27614182233810425 0.013363627716898918 0.33721646666526794 -0.33882200717926025 0.37102794647216797 -0.055772945284843445 0.32714128494262695 -0.3035358488559723 0.5636775493621826 -0.18121321499347687 0.3809058368206024 0.034090690314769745 0.036680690944194794 -0.29203346371650696 0.20206010341644287 0.1653674691915512 -0.10011041909456253 -0.29964372515678406 -0.054022010415792465 0.19626757502555847 0.1967967450618744 -0.10162553191184998 0.2295604646205902 -0.0929747149348259 -0.1793275773525238 0.18883481621742249 0.08609472215175629 -0.26949381828308105 0.10566534101963043 -0.11611215770244598 -0.09791938215494156 0.2388116717338562 -0.1509113609790802 0.1297972947359085 0.051755327731370926 -0.2567065954208374 0.08698253333568573 -0.2802923917770386 -0.06333416700363159 -0.1514609456062317 0.11290349066257477 -0.21084703505039215 0.17885413765907288 -0.18305113911628723 0.3360188603401184 0.27996546030044556 0.0024547968059778214 0.08814938366413116 -0.11072808504104614 0.12524177134037018 -0.16092437505722046 -0.3716902434825897 0.47742342948913574 -0.3829634189605713 0.13783463835716248 0.056959740817546844 0.25935477018356323 0.08451831340789795 0.0611242800951004 -0.3840376138687134 -0.028253085911273956 -0.09029936045408249 -0.24430188536643982 0.1246502622961998 0.13271179795265198 0.002905510365962982 -0.2587634325027466 0.20076186954975128 -0.04177292436361313 0.34355080127716064 0.32673025131225586 -0.07146628946065903 0.2110019028186798 -0.013145605102181435 0.019060952588915825 0.4308501183986664 -0.5570719838142395 0.12106500566005707 -0.5162481069564819 0.000594479963183403 0.0018811766058206558 -0.008417239412665367 0.12983600795269012 0.20422646403312683 0.09558939933776855 -0.5105708837509155 0.19326195120811462 -0.13216644525527954 0.33863675594329834 -0.12987925112247467 0.0378529354929924 0.1259402334690094 0.09710733592510223 -0.3766375184059143 -0.14982065558433533 0.08839712291955948 -0.14040431380271912 0.09981340169906616 0.22602874040603638 -0.04548932611942291 -0.2703346610069275 -0.28347525000572205 0.4696016013622284 -0.34722891449928284 0.5460495352745056 0.23544952273368835 0.05977068096399307 0.39415642619132996 -0.11519640684127808 0.02569705620408058 0.19075167179107666 0.28151410818099976 0.16791513562202454 0.1420510858297348 -0.023653097450733185 -0.06927952915430069 -0.0986221581697464 0.24949410557746887 0.2619868218898773 0.08113899827003479 0.2161155641078949 -0.16513147950172424 -0.14112593233585358 0.022606728598475456 -0.32801786065101624 -0.020022105425596237 -0.2896639406681061 0.3097505569458008 0.47126224637031555 -0.2703695297241211 -0.3743404448032379 -0.47939789295196533 0.1356765627861023 0.14054659008979797 0.2456715852022171 0.30309101939201355 -0.27644994854927063 -0.030731378123164177 0.12855564057826996 -0.14772894978523254 -0.06695091724395752 -0.3717377483844757 0.0169537216424942 0.18726754188537598 0.1572176069021225 -0.1845337599515915 -0.13259834051132202 0.1561400145292282 0.3267001509666443 0.10068675875663757
Case4 -0.5207116007804871 -0.1004120260477066 -0.03842339292168617 0.32534682750701904 -0.5132901668548584 0.5489075779914856 0.1225796490907669 0.32751545310020447 0.5853862166404724 0.08484584838151932 -0.39200854301452637 -0.03397637605667114 0.47285228967666626 0.058850668370723724 -0.128049835562706 0.36948996782302856 0.11105913668870926 -0.34717175364494324 -0.13849219679832458 0.15844149887561798 0.40158671140670776 -0.04084034636616707 0.39843952655792236 0.5948756337165833 -0.20629502832889557 0.05426281690597534 -0.07205808162689209 -0.11958257853984833 -0.22132542729377747 0.4358430504798889 -0.18068274855613708 0.27316907048225403 -0.4048267602920532 -0.7184951901435852 -0.1310277283191681 0.11944032460451126 -0.11821067333221436 0.22658132016658783 0.3016969859600067 -0.2248762547969818 0.31450361013412476 -0.5207487940788269 -0.32954734563827515 0.13205954432487488 0.1334819793701172 -0.4306480884552002 -0.750898003578186 0.2603021264076233 -0.3194546103477478 -0.2889505624771118 0.4117092192173004 -0.0023723654448986053 -0.1132032722234726 -0.6784705519676208 0.2768293619155884 0.5868617296218872 0.022707341238856316 0.26336929202079773 -0.10356322675943375 -0.39955615997314453 -0.28472277522087097 -0.13726893067359924 -0.45961493253707886 -0.17581473290920258 0.5472130179405212 0.04799502715468407 0.15710397064685822 -0.2873125970363617 -0.2863246202468872 -0.1671563982963562 -0.04759705811738968 0.6394465565681458 0.4488152861595154 -0.4015786647796631 0.16913282871246338 -0.25173065066337585 -0.6273021697998047 0.17988499999046326 0.18356265127658844 -0.14357838034629822 -0.06874220073223114 -0.16965332627296448 -0.6189906597137451 -0.05059010535478592 -0.45143720507621765 0.24392583966255188 0.320112407207489 0.07617514580488205 0.1484009325504303 -0.39897090196609497 0.35955941677093506 -0.04831434786319733 -0.13172264397144318 -0.6668980121612549 0.4545256495475769 0.21540910005569458 0.2462451457977295 -0.027555786073207855 -0.26993244886398315 0.012021956965327263 0.03366056829690933 0.023142993450164795 -0.13504476845264435 0.2919889986515045 -0.3955559730529785 0.26082855463027954 0.30440178513526917 0.09902431070804596 -0.1604732871055603 0.023564666509628296 0.2973174452781677 0.45647457242012024 0.45838871598243713 0.2745816111564636 -0.20617392659187317 -0.38137635588645935 -0.049189113080501556 0.15723538398742676 0.29995185136795044 0.12709954380989075 0.10240400582551956 0.12372435629367828 -0.22154508531093597 0.2853381931781769 -0.36733219027519226 0.043112367391586304 -0.18903574347496033 0.13715116679668427 -0.681700587272644 0.02387913316488266 0.38409703969955444 -0.06274166703224182 0.1848697066307068 -0.40166449546813965 0.08539317548274994 -0.23213432729244232 -0.1135452538728714 0.11690506339073181 -0.4617919921875 0.17746609449386597 -0.6647738218307495 -0.7513114809989929 0.4471378028392792 -0.682571530342102 -0.18045824766159058 0.19209519028663635 -0.2891911566257477 0.44417843222618103 -0.2690366506576538 -0.17904138565063477 0.10005952417850494 -0.20340678095817566 0.5955376625061035 0.0119024608284235 0.2989610433578491 0.13094815611839294 0.10507889837026596 0.15130014717578888 -0.590239405632019 0.00013216957449913025 -0.14152562618255615 0.46577078104019165 0.17741522192955017 -0.599960207939148 0.261724054813385 0.2578442394733429 -0.5032551288604736 0.1655137985944748 -0.09380361437797546 -0.3686281144618988 -0.09697094559669495 0.33331578969955444 -0.4998569190502167 0.39701178669929504 0.3510338366031647 -0.010774347931146622 -0.05018097534775734 0.02146071195602417 0.20877379179000854 -0.28887060284614563 -0.48194971680641174 0.11872048676013947 -0.11965113133192062 -0.2276289016008377 -0.22602009773254395 0.6077159643173218 0.6405792236328125 -0.1554882675409317 -0.20185577869415283 -0.41525283455848694 0.07780518382787704 -0.8171939253807068 -0.10399429500102997 -0.27819544076919556 -0.1922980695962906 0.05369919538497925 0.4500613808631897 -0.19778600335121155 -0.20653854310512543 -0.330255925655365
purity_test_score -0.03216812014579773 -0.6640079021453857 -0.5083548426628113 -0.6199084520339966 0.271146684885025 0.33253026008605957 0.5412399768829346 -0.016406850889325142 0.39415842294692993 -0.26132044196128845 0.37343838810920715 -0.3283573091030121 0.08005756139755249 0.09409084171056747 0.23209577798843384 0.4506811499595642 -0.11892959475517273 -0.08022840321063995 0.18002460896968842 -0.5956885814666748 0.4117257297039032 -0.3894890546798706 0.10210676491260529 0.1752919703722 0.3736185133457184 0.10880369693040848 0.5738562345504761 0.2742377817630768 -0.597101628780365 -0.16610631346702576 -0.479360967874527 0.27955693006515503 -0.2240239977836609 0.42161545157432556 0.4538632035255432 -0.31919583678245544 -0.1532796323299408 -0.26529139280319214 0.3069518208503723 0.5972219705581665 -0.5697377920150757 0.20381568372249603 0.19473576545715332 0.18609359860420227 -0.24552330374717712 0.0782545730471611 -0.4091159701347351 0.28809067606925964 0.013170460239052773 -0.24468891322612762 -0.024018285796046257 -0.14940235018730164 0.19517002999782562 0.3227408528327942 -0.04874097555875778 0.12419532984495163 0.30992546677589417 0.04825614392757416 -0.07040008902549744 0.05441749468445778 0.011091554537415504 -0.035563353449106216 -0.0898871123790741 0.4338456094264984 -0.5166370272636414 0.23889589309692383 0.1989448517560959 -0.29184573888778687 -0.07279905676841736 -0.343199759721756 0.013075370341539383 0.5558003187179565 -0.3734579384326935 0.41477474570274353 -0.17208583652973175 0.14495107531547546 0.4724277853965759 0.12600785493850708 -0.20121657848358154 -0.12971346080303192 -0.0055092331022024155 -0.4890042543411255 0.4249590039253235 -0.16520963609218597 0.194628044962883 0.33029046654701233 -0.11108502745628357 -0.6023626923561096 -0.052219048142433167 -0.01875488832592964 -0.463138222694397 0.003188749775290489 0.20086368918418884 0.4248792231082916 -0.6232922673225403 0.3130117356777191 -0.13774536550045013 0.35436487197875977 -0.07778427004814148 -0.0026461798697710037 0.009249849244952202 -0.2296936959028244 0.6271064281463623 0.3363768756389618 -0.1918409913778305 0.047067418694496155 -0.020144537091255188 -0.06326322257518768 0.02319871447980404 -0.0662720799446106 0.1906798630952835 -0.43971261382102966 -0.10784134268760681 -0.15585020184516907 0.15686571598052979 -0.6472263336181641 0.5896434187889099 0.07496201992034912 -0.3183279037475586 0.5239267945289612 -0.21837763488292694 -0.15865297615528107 -0.19448524713516235 0.2191196084022522 -0.0723990797996521 0.31033656001091003 -0.09343214333057404 -0.11040669679641724 0.26958149671554565 0.1468992978334427 0.2155255526304245 -0.4050673842430115 0.00922456942498684 -0.4108654260635376 0.13729596138000488 0.1672021448612213 0.536994218826294 -0.03029918670654297 -0.1630384474992752 0.12168377637863159 -0.5394642949104309 0.5389996767044067 0.06465765088796616 0.3322809338569641 0.47837305068969727 -0.12816375494003296 0.005670912563800812 -0.6354315280914307 -0.39800143241882324 -0.4063332974910736 0.10417604446411133 0.2137192189693451 -0.16824616491794586 0.14096125960350037 -0.028178302571177483 -0.7609837651252747 0.08301369845867157 -0.49251270294189453 0.2882898151874542 -0.06743437796831131 0.1496022641658783 -0.23068037629127502 0.1599985957145691 0.39480113983154297 -0.13388393819332123 -0.11545750498771667 -0.35191017389297485 -0.04022013023495674 -0.34115901589393616 0.3643406331539154 0.01666194014251232 0.07076919823884964 0.216074138879776 0.044223103672266006 0.14362770318984985 0.6167522668838501 0.11663061380386353 0.12164798378944397 0.3245355784893036 0.6201842427253723 -0.3642575144767761 0.25985074043273926 -0.4263193607330322 0.45194950699806213 0.20962755382061005 -0.08636165410280228 -0.0772833302617073 -0.318990021944046 -0.34509047865867615 -0.10979034751653671 -0.304584264755249 0.1002015620470047 0.5720795392990112 -0.06896594166755676 0.2571534812450409 -0.34783506393432617 0.11977320164442062 0.06002369523048401 0.5275236368179321 -0.13338179886341095
San_Diego 0.5397124886512756 -0.04449179768562317 -0.3990408778190613 -0.03789488226175308 -0.49265173077583313 0.3189976215362549 -0.002663560211658478 -0.001714734360575676 -0.2893783748149872 -0.1797807663679123 0.1753702312707901 -0.2784295976161957 0.11740616708993912 -0.011040536686778069 0.1632961481809616 0.21230055391788483 -0.32737305760383606 0.21757933497428894 -0.16506627202033997 0.009137094020843506 0.29814010858535767 0.12560994923114777 0.018116159364581108 0.1311439871788025 -0.3558730185031891 0.2154102921485901 0.15756836533546448 -0.13577452301979065 -0.5228214263916016 -0.1466692090034485 -0.030300838872790337 -0.2845785319805145 -0.2801995277404785 0.16805222630500793 0.2560919225215912 -0.089103564620018 0.3150780200958252 0.025474345311522484 0.06467132270336151 0.18226119875907898 -0.20669648051261902 0.19090618193149567 0.34877991676330566 -0.10708913952112198 -0.0017872955650091171 -0.2561916708946228 0.12308990955352783 0.09401601552963257 -0.15932603180408478 0.06659740209579468 -0.36425870656967163 -0.03376505523920059 0.005123315379023552 0.1878502070903778 0.09544149041175842 0.3983192443847656 -0.20519423484802246 0.25817200541496277 -0.4008786678314209 -0.2520533800125122 -0.1725214719772339 -0.36098727583885193 0.2822127044200897 -0.2010323405265808 0.34508562088012695 0.01543760858476162 0.2865540385246277 -0.009158382192254066 -0.02701811119914055 -0.48393842577934265 -0.30012351274490356 0.2644619941711426 0.4436030387878418 -0.15488217771053314 0.15974199771881104 -0.060181815177202225 0.3287995457649231 0.43228277564048767 -0.024839509278535843 -0.003543360158801079 0.2891698479652405 -0.04708431288599968 0.3417874574661255 0.06282837688922882 -0.021296359598636627 -0.2574814260005951 0.03579539433121681 -0.05136536806821823 0.03853762522339821 -0.1359238177537918 -0.12264542281627655 0.24211424589157104 -0.21480420231819153 -0.16662351787090302 -0.1473458856344223 0.11549407243728638 0.11034784466028214 -0.4192522168159485 0.014213446527719498 0.18962542712688446 -0.08956069499254227 -0.07212939858436584 -0.36863359808921814 0.2161204218864441 0.12975239753723145 -0.04354671388864517 -0.10877680778503418 0.20922385156154633 0.11611967533826828 0.06906614452600479 -0.3519011437892914 -0.3548767566680908 -0.5846111178398132 0.09448011964559555 0.3441772758960724 0.11065404862165451 0.27828362584114075 0.35361048579216003 0.23954680562019348 0.18857339024543762 -0.12109419703483582 -0.22903013229370117 0.13285300135612488 0.3002176880836487 -0.055508632212877274 -0.06603970378637314 0.1730252057313919 0.15074606239795685 -0.15793369710445404 -0.2547030746936798 -0.0815805196762085 0.1414772868156433 0.12198363244533539 -0.04328685253858566 0.10325828939676285 0.14526736736297607 -0.30792656540870667 0.1393459439277649 -0.4028422236442566 0.38016587495803833 0.24997730553150177 -0.005469471216201782 0.14411571621894836 -0.12319888174533844 -0.14662306010723114 -0.06838332116603851 -0.3129066228866577 -0.47767263650894165 -0.11157055199146271 -0.022164950147271156 0.2637709975242615 -0.08472012728452682 -0.20388025045394897 0.014840571209788322 0.11198261380195618 0.25297558307647705 -0.4370129704475403 0.053342822939157486 -0.33898308873176575 -0.09315916895866394 -0.0067079998552799225 0.22055207192897797 0.008585352450609207 0.20519208908081055 -0.07263043522834778 -0.4223558306694031 -0.035695336759090424 -0.19618476927280426 0.003822866827249527 -0.3608306050300598 -0.017410065978765488 -0.07375387102365494 -0.24380077421665192 0.316801518201828 0.3350954055786133 0.3424956202507019 -0.050194837152957916 0.04853278398513794 -0.1361355185508728 -0.25157466530799866 -0.36581605672836304 0.29770737886428833 0.02730550616979599 -0.1893325299024582 -0.009330328553915024 -0.3127666413784027 -0.04327688738703728 -0.34395506978034973 0.2294437736272812 0.0027687009423971176 0.3294844627380371 -0.1978377401828766 0.13617318868637085 -0.0037774015218019485 0.49990037083625793 -0.11335356533527374 -0.05840755254030228 0.0037008654326200485 0.23866163194179535 -0.015992239117622375
Sciaraffa 0.2174222320318222 -0.1314016878604889 -0.22539228200912476 0.1634264886379242 0.12894375622272491 -0.024900678545236588 0.12570545077323914 -0.12649382650852203 0.11524311453104019 -0.006350178271532059 -0.18607522547245026 -0.17374789714813232 0.45601147413253784 -0.009712759405374527 0.10929971933364868 0.2768156826496124 0.5132896304130554 0.19502639770507812 -0.4772030711174011 0.02178226038813591 -0.330464243888855 -0.1452987939119339 -0.1589900553226471 0.42740941047668457 0.10370989143848419 -0.04388180002570152 -0.23187579214572906 0.05267420411109924 0.2565256357192993 -0.252029687166214 -0.015545491129159927 0.10026741027832031 -0.17844371497631073 -0.07426982372999191 -0.057871002703905106 -0.014415886253118515 0.3777918815612793 0.07424899190664291 0.30311882495880127 -0.48332706093788147 -0.13009344041347504 0.17908614873886108 0.11176148056983948 0.004007179290056229 0.4479961395263672 -0.41327860951423645 -0.20607513189315796 0.017853006720542908 -0.14756424725055695 -0.173716202378273 -0.0732596144080162 0.08067838847637177 -0.04649770259857178 -0.0556861013174057 -0.19398149847984314 0.2047758549451828 0.06204208359122276 0.18374839425086975 0.14418858289718628 0.13435739278793335 0.11340028047561646 0.05744069814682007 0.09571320563554764 -0.5914584398269653 -0.14732974767684937 -0.22562099993228912 0.19577741622924805 0.2878483831882477 0.2384347915649414 -0.23584003746509552 0.13346701860427856 -0.22105076909065247 0.1476280242204666 0.16214320063591003 -0.2463877946138382 -0.2608404755592346 -0.2259082794189453 -0.37675195932388306 -0.10722938179969788 -0.15444375574588776 -0.3216584622859955 0.03867284953594208 0.2527145445346832 -0.04868702590465546 0.30896323919296265 -0.14913266897201538 0.5641260743141174 -0.2493315488100052 0.5686575174331665 0.5996659398078918 -0.14587488770484924 0.11350896954536438 -0.14220738410949707 -0.07991423457860947 -0.21699225902557373 -0.2252790927886963 -0.06989894062280655 0.44043269753456116 -0.10220568627119064 0.3139839768409729 0.1747313141822815 -0.003376876935362816 -0.012652123346924782 0.0892292857170105 -0.40998199582099915 0.12799318134784698 0.21631231904029846 0.0032646749168634415 -0.2759086489677429 -0.07661880552768707 0.1290552169084549 0.00944625772535801 -0.15417549014091492 -0.0981028825044632 -0.0290234312415123 0.2514631152153015 -0.30237650871276855 0.018749713897705078 0.007985588163137436 -0.28033798933029175 0.05048287287354469 -0.31733566522598267 -0.08784272521734238 -0.2777971029281616 0.029605351388454437 0.04368176311254501 0.06276118755340576 0.34756454825401306 0.23303671181201935 -0.6483257412910461 0.09190046042203903 0.19590118527412415 -0.17618565261363983 -0.47972792387008667 -0.26572102308273315 -0.3299078345298767 -0.20430386066436768 -0.09305896610021591 -0.09841448068618774 0.017301509156823158 0.16271676123142242 0.07113321125507355 -0.06112540140748024 -0.1824394166469574 -0.06604930758476257 0.1885058432817459 -0.23167167603969574 -0.3910562992095947 0.14125098288059235 0.18584708869457245 -0.09367942810058594 -0.26373934745788574 0.0754193440079689 0.20932084321975708 0.18219539523124695 -0.17297929525375366 0.1402023881673813 0.07286681979894638 -0.07078704982995987 0.37528347969055176 -0.12126655876636505 0.1866772174835205 -0.055263981223106384 0.20841211080551147 0.427092969417572 0.11148874461650848 0.4274602234363556 0.3482934832572937 0.13213780522346497 0.031029175966978073 0.10546720772981644 -0.07016058266162872 -0.19665923714637756 0.2423701286315918 0.1286129206418991 0.5364360809326172 -0.01597934029996395 -0.05233648419380188 -0.19996090233325958 -0.17428353428840637 -0.08746736496686935 -0.12281405925750732 -0.06507404893636703 -0.05773103982210159 -0.13265901803970337 -0.07233123481273651 0.11959205567836761 0.037755779922008514 0.16655205190181732 -0.2805737555027008 0.0008213184773921967 0.08697949349880219 -0.5624121427536011 -0.1420879364013672 0.45811495184898376 -0.43977609276771545 -0.06890039145946503 -0.4862218201160431 0.37403449416160583 -0.380851149559021
